tree
version=v4
num_class=1
num_tree_per_iteration=1
label_index=0
max_feature_idx=24
objective=regression
feature_names=HL HC LC TR ATR slope-30 slope-30.0 slope-30.1 his-ret-1 his-ret-2 his-ret-3 his-ret-5 his-ret-15 his-ret-30 his-ret-60 his-ret-120 his-ret-240 r_open_price r_high_price r_low_price r_close_price r_high_price_8h r_low_price_8h r_close_price_8h r_prev_close_price
feature_infos=[0.00053999999999999881:0.099449999999999983] [0:0.070969999999999978] [0:0.071649999999999991] [0.00053999999999999881:0.099449999999999983] [0.0010660000000000003:0.043820999999999999] [-3.1310048196939444e-05:4.2895736006783679e-05] [-3.1310048196939444e-05:4.2895736006783679e-05] [-3.1310048196939444e-05:4.2895736006783679e-05] [-0.073118279569892475:0.070010118897040119] [-0.10363951473136923:0.08191584601611468] [-0.13287117273252447:0.080810016609173418] [-0.13864340640422346:0.085113559703170694] [-0.160138764547896:0.12650885718764693] [-0.17382210479964766:0.17528735632183912] [-0.17978142076502723:0.22675464907018594] [-0.21792136543736673:0.23205141078421532] [-0.23609611997954882:0.25292423440898126] [-0.28577026421854002:0.35313998776837141] [-0.27043215405284371:0.36250684005536415] [-0.32148454993282582:0.34947049924357043] [-0.28179579041648006:0.35220652138925557] [0:0.29510802378289291] [-0.30029440628066728:0] [-0.14419367283950613:0.17760640489786317] [-0.14605652237141886:0.14319748149408662]
tree_sizes=3078 3084 3080 3057 3077 3071 3082 3071 3070 3096 3092 3117 3086 3110 3109 3105 3070 3085 3107 3093 3097 3084 3111 3118 3100 3102 3090 3080 3099 3109 3098 3144 3094 3115 3104 3099 3111 3101 3112 3079 3100 3103 3130 3108 3154 3105 3079 3127 3085 3104 3104 3116 3100 3158 3114 3137 3145 3090 3150 3081 3132 3087 3161 3104 3123 3118 3126 3098 3137 3122 3095 3132 3144 3086 3098 3130 3149 3134 3122 3099 3095 3115 3169 3165 3143 3132 3142 3139 3142 3165 3128 3151 3166 3120 3137 3102 3132 3150 3153 3157

Tree=0
num_leaves=31
num_cat=0
split_feature=13 11 16 4 5 10 23 21 5 14 21 17 13 5 20 16 21 16 19 5 1 19 18 5 19 4 5 0 5 21
split_gain=0.00651257 0.0120488 0.0162985 0.0139908 0.00567121 0.00326944 0.00334307 0.00321767 0.00292424 0.00279998 0.00850469 0.00884089 0.00641895 0.00588085 0.00292807 0.00329634 0.00268075 0.0033396 0.00565169 0.00432474 0.00278322 0.00552214 0.00265236 0.00481994 0.00333421 0.00250359 0.00200216 0.0019569 0.00195048 0.00340836
threshold=-0.03282196398509462 -0.013440185028310568 -0.087056286844403849 0.0027742500000000007 2.4523544687870143e-06 -0.010385429134024069 -0.027858792428003373 0.0065526257822646769 4.9161661070671278e-06 -0.046463240340385396 0.077562032220009028 0.0022942649794245322 -0.0087721429838203951 2.0810900932660711e-06 -0.10795917103118606 -0.044374146887641512 0.033766440545565997 -0.057943920249812868 -0.061406493542028866 -3.1904338169820943e-06 0.069440000000000016 0.044321063898992936 -0.12274677655779197 -3.7602521274639694e-06 -0.079551051576779538 0.002695250000000001 4.6562847582794235e-07 0.0073799999999999985 2.7084909202371397e-06 0.13033178827812245
decision_type=8 10 10 10 10 10 10 10 10 8 10 10 10 10 8 10 10 10 10 10 10 10 10 10 10 8 10 10 10 10
left_child=1 2 4 -4 22 6 -6 27 -5 10 25 12 13 -12 15 -11 17 18 19 -9 -18 -22 23 -1 -24 -2 -27 -3 29 -13
right_child=9 7 3 8 5 -7 -8 16 -10 14 11 28 -14 -15 -16 -17 20 -19 -20 -21 21 -23 24 -25 -26 26 -28 -29 -30 -31
leaf_value=0.002497374514274492 -0.0009967287098621774 0.00021616888762009551 -0.0023322701243360926 0.00020269553358847426 0.0012341177678768034 0.0010155448885613609 0.002785671230088303 -0.0012229191101242778 0.00097958590700531097 0.00022664208654329864 -0.0028857506185972059 -0.00067476397776568883 -0.000309229478824183 -0.00074706073975749096 1.7841345313046109e-05 2.9230340100462359e-05 0.00015671825244136607 2.8482872937049081e-05 -0.0018517422526017828 -2.6403301332411302e-05 0.0005451821592848304 -0.0014383819737288847 -1.4695999147493613e-05 0.00054864987300033902 0.0013550070016796431 -9.3334572715925978e-05 0.00024475802657898432 0.0011714698597830805 -0.00075510936057393313 0.00056655792457593662
leaf_weight=22 24 51 21 323 21 32 41 39 57 1426 36 37 30 20 523662 2079 742 281 27 134 25 32 52 30 27 440 291 37 42 55
leaf_count=22 24 51 21 323 21 32 41 39 57 1426 36 37 30 20 523662 2079 742 281 27 134 25 32 52 30 27 440 291 37 42 55
internal_value=1.8819e-05 0.000199202 0.000562586 0.000180373 0.00124377 0.00183645 0.00226015 3.29167e-05 0.000319229 1.81379e-05 -0.000151169 -0.000698297 -0.00148959 -0.00212193 1.84511e-05 0.000109547 -7.29607e-06 -0.000193815 -0.000506145 -0.000296138 0.000104989 -0.000568398 0.000818494 0.00137311 0.00045343 8.25945e-06 4.1255e-05 0.00061783 -0.000190449 6.73306e-05
internal_weight=0 1994 626 401 225 94 62 1368 380 528142 975 220 86 56 527167 3505 1280 481 200 173 799 57 131 52 79 755 731 88 134 92
internal_count=530136 1994 626 401 225 94 62 1368 380 528142 975 220 86 56 527167 3505 1280 481 200 173 799 57 131 52 79 755 731 88 134 92
is_linear=0
shrinkage=1


Tree=1
num_leaves=31
num_cat=0
split_feature=13 11 15 4 2 5 18 5 21 14 21 17 13 5 17 9 21 24 12 2 1 19 15 24 14 4 20 24 15 14
split_gain=0.00527518 0.00975954 0.0129616 0.0109142 0.00973567 0.0047259 0.00340063 0.00568028 0.00260631 0.00226798 0.0068888 0.00716112 0.00519935 0.00476349 0.00238102 0.00217303 0.00217141 0.00316368 0.00568207 0.00442636 0.0022544 0.00447294 0.00207658 0.00232116 0.0020683 0.00202791 0.00191837 0.00432588 0.00179377 0.0023546
threshold=-0.03282196398509462 -0.013440185028310568 -0.063758572010334011 0.0027742500000000007 0.019970000000000012 2.4523544687870143e-06 -0.12274677655779197 -2.3224694089113678e-06 0.0065526257822646769 -0.046463240340385396 0.077562032220009028 0.0022942649794245322 -0.0087721429838203951 2.0810900932660711e-06 -0.1078563250149208 0.006032543991522977 0.033766440545565997 -0.00011297910680135857 -0.023209845577169371 0.0046900000000000145 0.069440000000000016 0.044321063898992936 0.048449959905347513 5.8303952898963736e-05 -0.03103384895194616 0.002695250000000001 -0.12471147238192636 -0.00011297910680135857 0.032544374087354784 -0.046463240340385396
decision_type=8 10 10 10 10 10 10 10 10 8 10 10 10 10 8 10 10 10 10 10 10 10 10 10 10 8 10 10 10 10
left_child=1 2 4 -4 5 6 7 -1 -3 10 25 12 13 -12 15 22 17 18 19 -10 28 -22 24 -24 -11 -2 27 -7 29 -18
right_child=9 8 3 -5 -6 26 -8 -9 16 14 11 -13 -14 -15 -16 -17 20 -19 -20 -21 21 -23 23 -25 -26 -27 -28 -29 -30 -31
leaf_value=0.0021688911649398505 -0.00091399291801887248 0.00053910948847095083 -0.0021774597134208307 0.00022730028331081022 0.0026779106809220639 0.00085629489594360908 6.2540663562326147e-05 0.00011199317182060973 -0.0020190578306533606 0.00033168072954784769 -0.0026141125679714607 -0.0001883412339569742 -0.00029524363577365875 -0.00068929177534300841 -8.8400946706934146e-07 0.00032371242643204092 0.00027796145461850963 -8.9484035397031081e-07 -0.00010193030744180385 -0.00030675270290185627 0.00047372690029442316 -0.0013114808541558887 0.00076257528189350575 -4.2071976678280702e-05 1.5399022397642243e-05 2.0192380913218904e-05 0.00095144047647611129 0.0029112595168408009 0.00064831035502720634 -9.4659291578614473e-05
leaf_weight=25 24 88 20 335 31 21 91 29 36 223 36 134 30 20 523623 335 316 310 109 26 25 32 85 62 2839 731 54 20 60 366
leaf_count=25 24 88 20 335 31 21 91 29 36 223 36 134 30 20 523623 335 316 310 109 26 25 32 85 62 2839 731 54 20 60 366
internal_value=0 0.000162345 0.00048939 9.18208e-05 0.00101019 0.000794777 0.000435595 0.00106426 1.26879e-05 -6.12932e-07 -0.000152989 -0.000645404 -0.00135757 -0.00192668 -3.31111e-07 8.13591e-05 -2.35035e-05 -0.000191371 -0.000536679 -0.00130099 7.75531e-05 -0.000528495 5.60589e-05 0.0004232 3.84333e-05 -9.50358e-06 0.001343 0.00185872 0.000124109 7.7992e-05
internal_weight=0 1994 626 355 271 240 145 54 1368 528142 975 220 86 56 527167 3544 1280 481 171 62 799 57 3209 147 3062 755 95 41 742 682
internal_count=530136 1994 626 355 271 240 145 54 1368 528142 975 220 86 56 527167 3544 1280 481 171 62 799 57 3209 147 3062 755 95 41 742 682
is_linear=0
shrinkage=0.1


Tree=2
num_leaves=31
num_cat=0
split_feature=13 11 16 4 5 24 19 5 22 22 14 24 5 19 17 16 16 22 15 4 18 5 19 12 17 5 5 4 23 2
split_gain=0.0042729 0.00790522 0.0111369 0.0091628 0.00381475 0.00279952 0.00227832 0.00210813 0.00202176 0.0018509 0.00183707 0.00528906 0.00588384 0.00537906 0.00192863 0.00237542 0.00190083 0.00447462 0.0018856 0.00266242 0.00182944 0.00320035 0.00263266 0.00167577 0.00179481 0.00166914 0.00166325 0.00163702 0.00206298 0.002798
threshold=-0.03282196398509462 -0.013440185028310568 -0.087056286844403849 0.0027742500000000007 2.4523544687870143e-06 -1.0000000180025095e-35 -0.1267468771282583 2.0810900932660711e-06 -0.0040586260350700112 -0.060510780080930908 -0.046463240340385396 0.0001632253336588674 -1.8331108621822354e-06 -0.1267468771282583 -0.1078563250149208 -0.044374146887641512 -0.03531346526491274 -0.060510780080930908 0.048449959905347513 0.0051645000000000024 -0.12274677655779197 -3.7602521274639694e-06 -0.079551051576779538 -0.023209845577169371 0.083562165811229785 9.1286614781940696e-07 -1.8687430634806382e-07 0.02126225 -0.040890411196555447 0.0024150000000000148
decision_type=8 10 10 10 10 10 10 10 10 10 8 10 10 10 8 10 10 10 10 8 10 10 10 10 10 10 10 10 10 10
left_child=1 2 4 -4 20 -6 -7 -5 9 -9 11 16 -13 -14 15 -12 23 -18 19 -17 21 -1 -22 -2 26 -15 -25 28 -3 -30
right_child=10 27 3 7 5 6 -8 8 -10 -11 14 12 13 25 -16 18 17 -19 -20 -21 22 -23 -24 24 -26 -27 -28 -29 29 -31
leaf_value=0.0020314617505805058 0.0004863276464226919 0.00048444099192498214 -0.0019089008069602727 7.4909919713936978e-05 0.00086914904840807317 0.0026903277743258514 0.001373160015671225 0.0011142643871538056 0.0014473058442077177 0.00013344491390681297 0.00017276552025081898 -0.0018575978018548888 -0.0016051181792281568 -0.0002549963461206062 -7.9560947532325511e-07 -0.00024565645312339397 -0.0014464999440436561 -0.00011083513403617771 0.00043196955377076089 4.2250076812526219e-05 -6.4416939186720326e-05 0.00044354210064436004 0.0011526871548051497 -0.00024581458825916758 0.00068331777947605588 0.0007362734645049876 0.00010192029830396531 0.00023940973112850374 0.00015553803141563717 -0.0001921583703621891
leaf_weight=22 73 70 21 258 41 24 29 26 22 74 1430 34 25 49 523623 401 30 153 99 1614 52 30 27 265 34 26 286 256 347 695
leaf_count=22 73 70 21 258 41 24 29 26 22 74 1430 34 25 49 523623 401 30 153 99 1614 52 30 27 265 34 26 286 256 347 695
internal_value=0 0.00014611 0.000440451 0.000124505 0.00100354 0.00148962 0.00196961 0.000236877 0.000579398 0.000388458 -5.5164e-07 -0.00013769 -0.000721179 -0.000334797 -2.98001e-07 7.32232e-05 -4.47202e-05 -0.000329797 5.88854e-06 -1.50455e-05 0.000654743 0.00111535 0.000351555 3.45639e-05 -2.181e-05 8.86439e-05 -6.53206e-05 1.14191e-05 -4.10679e-05 -7.63708e-05
internal_weight=0 1994 626 401 225 94 53 380 122 100 528142 975 134 100 527167 3544 841 183 2114 2015 131 52 79 658 585 75 551 1368 1112 1042
internal_count=530136 1994 626 401 225 94 53 380 122 100 528142 975 134 100 527167 3544 841 183 2114 2015 131 52 79 658 585 75 551 1368 1112 1042
is_linear=0
shrinkage=0.1


Tree=3
num_leaves=31
num_cat=0
split_feature=13 11 16 0 10 5 23 8 14 16 21 5 23 0 5 21 1 5 12 19 2 0 12 5 18 16 17 17 2 11
split_gain=0.00346105 0.00658086 0.00874729 0.00827796 0.00402448 0.00318275 0.00243061 0.00234725 0.00222316 0.00197284 0.00191815 0.00177917 0.00269579 0.00171831 0.00168887 0.00182047 0.00161955 0.00189466 0.00302392 0.00158379 0.00157828 0.0028294 0.00675077 0.00628266 0.0037196 0.00331508 0.00151793 0.00145484 0.00139999 0.001388
threshold=-0.03282196398509462 -0.01056072483164444 -0.087056286844403849 0.0036399999999999909 -0.010385429134024069 2.4523544687870143e-06 -0.027858792428003373 -0.0061180248948133889 0.039320407145688192 0.026744486260377179 0.0065526257822646769 -6.4159436438075179e-06 -0.013528754169732758 0.0073799999999999985 1.9375231764047897e-06 0.017159036399540754 0.069440000000000016 6.5921764871813024e-06 0.01974061286613216 0.022386575020393321 0.0024150000000000148 0.0070849999999999949 -0.018254006687822785 -2.8097886518722544e-07 0.06353548824763601 -0.057943920249812868 0.059573965389948975 -0.07774454361142856 0.00069000000000000322 0.011144598173663424
decision_type=8 10 10 10 10 10 10 10 10 10 10 10 10 10 10 10 10 10 10 10 10 10 10 10 10 10 10 10 10 10
left_child=1 2 4 -4 5 11 -7 -8 9 14 13 -1 -13 -3 15 -5 -2 19 -19 -18 -12 22 23 -22 29 -26 -16 -24 -11 -23
right_child=16 10 3 8 -6 6 7 -9 -10 28 20 12 -14 -15 26 -17 17 18 -20 -21 21 24 27 -25 25 -27 -28 -29 -30 -31
leaf_value=0.0016159745829645543 -3.4866811408838307e-07 9.0988567024667525e-05 -0.0016834174598140334 0.0004680842385031221 0.00025968378400788284 0.00080163094938722097 0.002856283233545366 0.0014086102826089096 -0.00079103326438815288 3.8999367617569602e-05 0.00014285192745788547 -9.6748482568987783e-05 0.0010734176070481124 0.0010596826850087383 0.00029939556444952064 -0.00012330781624912232 0.0006549573507912171 -0.0012704207155949032 -4.7577639166515188e-05 -0.00016237289727977946 -0.0025134383589029315 1.3391831914907092e-06 0.0008701867100502237 -0.00046134596062050127 -0.001724667434464209 -0.00031663814411777094 0.0011428256268398119 -0.0001931058099275575 0.0010012462917277137 0.00046760707595588946
leaf_weight=20 527766 47 24 70 78 22 21 24 21 21 315 35 45 30 119 203 26 39 42 269 25 509 22 37 20 102 26 31 54 73
leaf_count=20 527766 47 24 70 78 22 21 24 21 21 315 35 45 30 119 203 26 39 42 269 25 509 22 37 20 102 26 31 54 73
internal_value=0 0.000131499 0.000357427 0.000131875 0.000852722 0.00112971 0.00166305 0.00208419 0.000216635 0.000259558 -1.45798e-05 0.000772371 0.00056147 0.000468402 0.000174823 2.83312e-05 -4.96475e-07 -0.000207963 -0.000636354 -9.0337e-05 -4.73748e-05 -0.000120539 -0.000580417 -0.0012888 -4.54169e-05 -0.000547463 0.000450631 0.000248261 0.000731817 5.9823e-05
internal_weight=0 1994 783 538 245 167 67 45 514 493 1211 100 80 77 418 273 528142 376 81 295 1134 819 115 62 704 122 145 53 75 582
internal_count=530136 1994 783 538 245 167 67 45 514 493 1211 100 80 77 418 273 528142 376 81 295 1134 819 115 62 704 122 145 53 75 582
is_linear=0
shrinkage=0.1


Tree=4
num_leaves=31
num_cat=0
split_feature=13 15 22 11 5 4 4 12 22 17 9 20 1 0 16 5 18 5 22 19 5 4 18 18 14 21 19 22 13 16
split_gain=0.00280345 0.00545901 0.0099702 0.00770021 0.00562746 0.00488112 0.00247879 0.00248733 0.00343283 0.00351278 0.00301789 0.00276173 0.00183205 0.00212332 0.00212071 0.00409278 0.00165327 0.00345001 0.0016127 0.00202555 0.0030329 0.0022747 0.00156914 0.00216957 0.00140912 0.00470698 0.0050657 0.00204089 0.00400362 0.00448846
threshold=-0.03282196398509462 -0.063758572010334011 -0.00098871418041435156 -0.013440185028310568 2.7084909202371397e-06 0.019410750000000008 0.021459000000000002 -0.023209845577169371 -0.037931322067488719 -0.057601955306243673 -0.0086166358445663432 -0.04517447614032976 0.0023000000000000039 0.0059549999999999959 -0.087056286844403849 -4.6950315140199863e-06 -0.12274677655779197 -2.3224694089113678e-06 -0.0022536944343870542 0.12879016682320613 -3.1904338169820943e-06 0.0028577499999999987 0.11904191058098125 0.085450004339892485 -0.046463240340385396 0.077562032220009028 -0.1267468771282583 -0.021670294436990086 -0.0093479544936097541 -0.087056286844403849
decision_type=8 10 10 10 10 8 10 10 10 10 10 10 10 10 10 10 10 10 10 10 10 10 10 10 8 10 10 10 10 10
left_child=1 3 12 4 16 -6 7 8 9 -5 -10 -9 13 -3 15 -14 17 -1 19 21 -21 -16 23 -23 25 -2 -27 28 29 -28
right_child=24 2 -4 6 5 -7 -8 11 10 -11 -12 -13 14 -15 18 -17 -18 -19 -20 20 -22 22 -24 -25 -26 26 27 -29 -30 -31
leaf_value=0.0017088560634292663 -1.9481622769411762e-06 4.397350817041547e-05 -0.0020197042511426845 -0.00034571832249639554 0.00089477362707839352 0.0023836687402499302 0.0008776813574201827 5.5821045916311646e-05 -0.0010492220332491257 -0.0019688576599583029 0.00027059871118957873 0.00099976509869718899 -0.0017462689816602505 0.0007605874206719947 0.0008197313736470987 -8.3614147182455977e-05 0.00016526827349918206 0.00012996145035891284 0.00053165370723339347 -0.0011326517239611254 8.6948610210542531e-05 1.8254053230575779e-05 0.00065492352352723379 -0.00071113951092039048 -2.2468803851382113e-07 -0.0015947574932864438 3.781114717877126e-05 0.00014907514726343965 7.4136363956230615e-05 -0.001700056439585751
leaf_weight=25 755 99 24 40 76 31 35 151 21 20 99 39 20 71 36 57 108 31 60 38 44 790 36 43 527167 37 23 63 55 42
leaf_count=25 755 99 24 40 76 31 35 151 21 20 99 39 20 71 36 57 108 31 60 38 44 790 36 43 527167 37 23 63 55 42
internal_value=0 0.000118349 -1.48504e-07 0.000349385 0.000761977 0.00132614 7.33047e-05 -2.78503e-06 -0.000269168 -0.000886765 3.96301e-05 0.000249578 3.73085e-05 0.000343265 -8.96611e-06 -0.000515473 0.000393897 0.000834825 2.82841e-05 -2.31585e-06 -0.000478232 4.08058e-05 8.53734e-06 -1.93977e-05 -4.46828e-07 -0.000120554 -0.000527589 -0.000311822 -0.000553793 -0.00108512
internal_weight=0 1994 1318 676 271 107 405 370 180 60 120 190 1294 170 1124 77 164 56 1047 987 82 905 869 833 528142 975 220 183 120 65
internal_count=530136 1994 1318 676 271 107 405 370 180 60 120 190 1294 170 1124 77 164 56 1047 987 82 905 869 833 528142 975 220 183 120 65
is_linear=0
shrinkage=0.1


Tree=5
num_leaves=31
num_cat=0
split_feature=11 16 4 12 24 15 4 5 5 0 1 12 14 19 16 20 14 14 9 14 13 5 4 5 15 16 23 1 12 11
split_gain=0.00236296 0.00735897 0.00471322 0.00343816 0.00219176 0.00336018 0.00214849 0.00252039 0.00237116 0.00169155 0.00163048 0.00245581 0.00513193 0.00258512 0.00305311 0.0021293 0.00206306 0.00201323 0.00157916 0.00148046 0.00379808 0.0014221 0.0016662 0.00139097 0.0012257 0.00207718 0.00121431 0.00111356 0.00103406 0.00132387
threshold=-0.013440185028310568 -0.087056286844403849 0.043171500000000008 -0.023209845577169371 -0.00012429698008892262 -0.063758572010334011 0.016214000000000006 -3.7602521274639694e-06 2.7084909202371397e-06 0.019270000000000013 0.069440000000000016 -0.023209845577169371 -0.036504833301916388 0.026782902881798524 -0.057943920249812868 0.070755339967223732 -0.046463240340385396 0.033954920313324484 -0.0024191179442416551 0.049173497267759443 0.0030649182379518529 1.9375231764047897e-06 0.0031387500000000005 3.4442343341913729e-06 0.016017493933687569 0.006905383458889359 -0.0040056579343333834 0.009145000000000016 0.025290105665125243 9.7742159926972341e-05
decision_type=10 8 8 10 10 10 8 10 10 10 10 10 10 10 10 10 10 10 10 10 10 10 10 10 10 10 10 10 10 10
left_child=1 3 19 4 9 6 7 -6 -9 -1 -2 12 -12 -13 16 -16 -15 24 -5 21 -21 22 -3 -22 25 -17 -7 -23 29 -19
right_child=10 2 -4 18 5 26 -8 8 -10 -11 11 13 -14 14 15 17 -18 28 -20 20 23 27 -24 -25 -26 -27 -28 -29 -30 -31
leaf_value=0.00082044902374036612 -2.6999409827755077e-07 0.00048873260901123963 -0.0013685970858205111 -0.00012878176243840393 0.0018239339034113546 0.0007188052426341608 0.0018456007411403238 -0.00017573357799847145 0.0011147934647410044 -0.00025431212034163767 -0.0018822028865106404 0.00081454176355951608 7.2893225045971057e-05 -4.6931935309079239e-05 0.00095954084594268357 0.00026483709200766822 -0.0012580252376396973 -0.00017118156935215338 0.00070370190369430932 -0.0012288993861147902 0.00028333913270706454 0.00045313303761269295 -1.7768344099368252e-05 -0.00059437719453126197 0.00053741992921762485 -0.00070755376253501374 -0.00032038739829493517 0.00010887639627118091 3.2338569619004493e-05 -0.0011788871257522261
leaf_weight=27 527678 69 24 86 23 23 38 24 35 32 25 28 29 22 20 59 39 22 31 32 65 143 1106 25 45 35 22 274 23 32
leaf_count=27 527678 69 24 86 23 23 38 24 35 32 25 28 29 22 20 59 39 22 31 32 65 143 1106 25 45 35 22 274 23 32
internal_value=0 0.000106401 2.30653e-05 0.000531147 0.000760632 0.000947682 0.00122403 0.000935983 0.000589833 0.000237528 -4.18914e-07 -0.000207758 -0.000832244 -0.000103998 -0.000190594 -2.75885e-05 -0.000821237 -0.000118989 9.17908e-05 4.25518e-05 -0.000293173 6.82795e-05 1.19751e-05 3.9529e-05 0.000108237 -9.72233e-05 0.000210756 0.000226931 -0.000529177 -0.00076834
internal_weight=0 2079 1738 341 224 165 120 82 59 59 528057 379 54 325 297 236 61 216 117 1714 122 1592 1175 90 139 94 45 417 77 54
internal_count=530136 2079 1738 341 224 165 120 82 59 59 528057 379 54 325 297 236 61 216 117 1714 122 1592 1175 90 139 94 45 417 77 54
is_linear=0
shrinkage=0.1


Tree=6
num_leaves=31
num_cat=0
split_feature=13 11 16 0 10 5 20 2 5 5 2 20 3 21 24 19 20 15 1 14 16 5 2 13 5 22 24 12 13 1
split_gain=0.00206623 0.00402675 0.00501703 0.00671744 0.00305865 0.00219176 0.00206534 0.00272329 0.00224831 0.00189472 0.00164217 0.00190735 0.00152419 0.00134048 0.00135998 0.00126775 0.00124114 0.00156087 0.00201149 0.00169384 0.00149313 0.00140663 0.00131742 0.00228328 0.00128911 0.00251686 0.00242626 0.00249143 0.00188259 0.00176924
threshold=-0.03282196398509462 -0.01056072483164444 -0.087056286844403849 0.0029349999999999936 -0.010385429134024069 -2.7393400388413202e-07 0.14592046326313449 0.0007549999999999919 -2.6700037297041676e-07 -6.4159436438075179e-06 0.019970000000000012 -0.12471147238192636 0.052175000000000006 0.0063924698092688867 -1.0000000180025095e-35 0.16994252334063711 -0.10795917103118606 0.042549136314073761 0.0035099999999999997 0.0059279763678482542 -0.039242023124851137 1.3177975569243223e-06 0.0055299999999999941 -0.019607690539257924 -3.1904338169820943e-06 -0.026071440376373042 -0.00011297910680135857 -0.023209845577169371 -0.012588824667774721 0.01364500000000002
decision_type=10 10 8 10 10 10 10 10 10 10 10 10 10 8 10 10 8 10 10 10 10 10 10 8 10 10 10 10 10 10
left_child=1 2 4 -4 5 9 7 -5 -8 -1 11 -7 -9 14 -3 -15 17 20 21 -20 24 -19 23 -22 26 29 27 -2 -29 -26
right_child=16 13 3 6 -6 10 8 12 -10 -11 -12 -13 -14 15 -16 -17 -18 18 19 -21 22 -23 -24 -25 25 -27 -28 28 -30 -31
leaf_value=0.001267162065487355 0.00039625252551480153 0.0001093806011958118 -0.0016905877669341864 0.00095847968874063271 0.00013606512220576406 0.0014891032596679931 -0.0012631763782701456 9.521765039385266e-05 0.00020178529207028493 0.00010505591090669499 0.002001551348948851 0.00051223620071030429 0.00072239038116856335 -5.6870970877935179e-05 0.0010167169690248558 0.00056291635113773423 -7.9572590410957082e-07 0.00040702203002772021 0.00070170410108403311 -0.00022882694657376225 -0.0012834441917034796 0.0012242445572545487 -3.5139698735725757e-06 -0.00010250529978748091 0.00013709349824349033 0.00062000092691978171 0.00022518649063487021 -0.00033375790302862265 -0.001383857024202664 -0.0002640314980514328
leaf_weight=20 23 53 20 47 78 39 20 392 22 47 20 41 43 1125 24 34 524376 85 26 79 22 28 1714 64 1314 101 90 38 31 120
leaf_count=20 23 53 20 47 78 39 20 392 22 47 20 41 43 1125 24 34 524376 85 26 79 22 28 1714 64 1314 101 90 38 31 120
internal_value=0 0.00010082 0.000277316 0.000108089 0.000653068 0.000894543 0.000176741 0.000235346 -0.000495816 0.000451953 0.00119108 0.000988459 0.000157214 -1.18465e-05 0.000392187 -3.86891e-05 -3.86586e-07 5.70546e-05 0.00031671 1.59027e-06 4.096e-05 0.00060952 -2.26773e-05 -0.000404606 0.000107673 0.00013751 -0.000143966 -0.000505093 -0.000805542 0.000103527
internal_weight=0 2025 789 544 245 167 524 482 42 67 100 80 435 1236 77 1159 528111 3735 218 105 3517 113 1800 86 1717 1535 182 92 69 1434
internal_count=530136 2025 789 544 245 167 524 482 42 67 100 80 435 1236 77 1159 528111 3735 218 105 3517 113 1800 86 1717 1535 182 92 69 1434
is_linear=0
shrinkage=0.1


Tree=7
num_leaves=31
num_cat=0
split_feature=13 15 2 2 10 5 10 2 4 23 5 21 12 11 20 0 2 1 16 11 19 23 16 16 11 23 24 5 12 14
split_gain=0.00167365 0.00339162 0.00772192 0.00473866 0.00367316 0.00284449 0.0028002 0.00258889 0.00253262 0.00242104 0.00212249 0.00378979 0.00457675 0.00245746 0.00208837 0.00187193 0.00153563 0.0014199 0.00182617 0.00349159 0.00157856 0.00159985 0.00130115 0.00190272 0.00248552 0.00212337 0.00124932 0.00121783 0.0012163 0.00118599
threshold=-0.03282196398509462 -0.063758572010334011 0.00010000000000000288 0.019970000000000012 -0.010385429134024069 1.7053392659960508e-06 -0.0064392287072195234 0.0037099999999999985 0.011167750000000004 0.016265038486225961 -6.4159436438075179e-06 0.077562032220009028 -0.018254006687822785 -0.013440185028310568 0.011127158594234745 0.023535000000000018 0.0025550000000000021 0.0021399999999999896 -0.087056286844403849 -0.003650020680963761 -0.067442080839000093 -0.0045184186757626357 0.024344979275948812 0.10646732904031798 -0.0052319987560096584 0.033249045601067902 0.00017682234411620093 1.2560993668722558e-06 -0.015696411248149408 -0.046463240340385396
decision_type=10 8 8 10 10 10 10 10 8 10 10 10 10 10 10 10 10 8 8 10 10 10 8 10 10 10 10 10 10 8
left_child=1 3 -3 5 -5 7 15 -1 -8 10 -9 12 13 -12 -6 16 -7 20 19 -19 -4 -22 26 25 -25 -24 -20 -28 -27 -2
right_child=29 2 17 4 14 6 8 9 -10 -11 11 -13 -14 -15 -16 -17 -18 18 22 -21 21 -23 23 24 -26 28 27 -29 -30 -31
leaf_value=0.00034821649041360023 -0.00011053648240713534 -0.0017785773189946969 0.00066098013325450078 0.0019646180431461997 0.0012376729235984386 0.0017515306782332205 -0.00024096039527862829 0.00023265970273159172 0.0005309925674844314 0.00059650536859408027 -0.00039688339188265111 -0.0016982779132667929 0.00049262765948319953 -0.0017186784862794659 -0.00014592429603605222 0.00010177687753082043 0.00077652866328467747 4.4540486123878514e-05 -3.1837149151283331e-07 -0.0013452125207424677 -0.00030916453989837987 0.00050185111665700262 5.6886683209301996e-05 -0.0011054266912928459 0.00026659408730695088 0.00088585350352029006 -0.00072482144308499605 0.00017366156786341561 9.213867261468505e-05 -1.4411936021970434e-07
leaf_weight=116 975 24 71 27 20 21 85 41 85 29 39 25 41 22 24 31 70 48 735 29 56 43 118 23 31 75 48 22 26 527136
leaf_count=116 975 24 71 27 20 21 85 41 85 29 39 25 41 22 24 31 70 48 735 29 56 43 118 23 31 75 48 22 26 527136
internal_value=0 9.07378e-05 -8.7556e-07 0.000273558 0.00104642 0.000182858 0.000407353 -2.65744e-05 0.000145016 -0.000247263 -0.000392914 -0.000594871 -0.000324428 -0.000873596 0.000482984 0.000772904 0.00100153 3.13243e-05 -8.39069e-06 -0.000478873 0.000301153 4.30948e-05 2.52152e-05 0.000213871 -0.000317785 0.000344965 -3.87638e-05 -0.000442441 0.000681531 -3.47926e-07
internal_weight=0 2025 1349 676 71 605 292 313 170 197 168 127 102 61 44 122 91 1325 1155 77 170 99 1078 273 54 219 805 70 101 528111
internal_count=530136 2025 1349 676 71 605 292 313 170 197 168 127 102 61 44 122 91 1325 1155 77 170 99 1078 273 54 219 805 70 101 528111
is_linear=0
shrinkage=0.1


Tree=8
num_leaves=31
num_cat=0
split_feature=20 11 9 5 2 24 5 13 2 11 8 5 13 11 8 16 5 2 11 14 12 1 12 12 0 10 15 2 4 24
split_gain=0.00170413 0.00389391 0.00371209 0.00321435 0.00243859 0.00241134 0.00203397 0.00164775 0.00204213 0.00247537 0.00209099 0.00183146 0.00167568 0.00174589 0.00160351 0.00152543 0.0015857 0.00148359 0.0014597 0.00142681 0.00210289 0.00141608 0.00131602 0.00120739 0.00118362 0.0011014 0.00107348 0.00118555 0.0010691 0.00105444
threshold=-0.12471147238192636 -0.013440185028310568 -0.0086166358445663432 2.4523544687870143e-06 0.0060049999999999973 -0.00011297910680135857 -4.6950315140199863e-06 0.0022943167627131893 0.0060049999999999973 -0.0091213792340900084 0.0050003840941502684 -1.7232109728209535e-06 -0.0099818108328226778 0.0037977423261833514 0.00017986150680160409 -0.044374146887641512 4.0038190539862903e-06 0.0055299999999999941 0.0095122185958625999 -0.036504833301916388 -0.002876083524530892 0.01364500000000002 0.0036372463741179977 0.0055821288931819932 0.023535000000000018 0.0014274269380488704 -0.037526390916629952 0.0047350000000000178 0.0089639999999999997 -0.0001384355543080362
decision_type=8 10 10 10 10 10 10 10 10 10 10 10 10 10 10 10 10 10 10 10 10 10 10 10 10 10 10 10 10 10
left_child=1 3 4 6 -3 -5 -1 8 9 -4 12 21 13 14 -11 16 19 -13 -12 20 28 -9 -15 -23 -18 -14 27 -8 -10 -17
right_child=-2 2 7 5 -6 -7 26 11 15 10 18 17 25 22 -16 29 24 -19 -20 -21 -22 23 -24 -25 -26 -27 -28 -29 -30 -31
leaf_value=0.00094104662044521654 -3.6061411370621032e-07 -0.0012268232824312322 -0.0012192002721955458 0.00034811965271149925 -4.443327266154952e-05 0.0016997010211608457 0.00042601643502712249 0.00029543972333370108 0.00047351154498755934 -0.00051402373920251252 0.00091942417650268645 0.00045970070288883736 0.00053939499334303728 0.00023730355125294546 -0.0016161960216281427 0.00016043506933196877 0.00011657418519327487 3.5957919176235459e-05 -8.2452283712689575e-05 0.00016170593284507611 7.3674914182913384e-05 0.00045058909745421261 -0.00079070520296227193 0.0015129675734383257 -0.00084859504252866229 -0.00041153659774517155 0.00052869719057686306 -0.00040690958116169061 0.0014173954061698169 -0.00015412849231199446
leaf_weight=34 528000 37 24 22 33 33 25 73 20 33 26 104 29 33 22 155 27 402 33 363 41 20 20 23 24 21 34 54 30 341
leaf_count=34 528000 37 24 22 33 33 25 73 20 33 26 104 29 33 22 155 27 402 33 363 41 20 20 23 24 21 34 54 30 341
internal_value=0 8.91404e-05 4.55049e-05 0.000506918 -0.000669411 0.00115907 0.000262916 7.23526e-05 5.81655e-06 -0.000255513 -0.00014893 0.000205211 -0.00033862 -0.000560205 -0.000954893 6.87341e-05 0.000191076 0.000123051 0.000359053 0.000250467 0.000604536 0.000563596 -0.000150624 0.00101884 -0.000337623 0.000140004 5.88761e-05 -0.000143325 0.00103984 -5.58274e-05
internal_weight=0 2136 1934 202 70 55 147 1864 1242 241 217 622 158 108 55 1001 505 506 59 454 91 116 53 43 51 50 113 79 50 496
internal_count=530136 2136 1934 202 70 55 147 1864 1242 241 217 622 158 108 55 1001 505 506 59 454 91 116 53 43 51 50 113 79 50 496
is_linear=0
shrinkage=0.1


Tree=9
num_leaves=31
num_cat=0
split_feature=13 0 20 11 16 24 12 23 19 23 17 5 1 13 5 13 10 5 1 23 5 15 21 12 19 8 19 16 5 18
split_gain=0.0014071 0.00209087 0.00917702 0.00219875 0.00256429 0.00175747 0.00162957 0.00156004 0.00177777 0.00168325 0.00138213 0.00198752 0.00135744 0.00198285 0.00195364 0.0016909 0.0014333 0.00132591 0.0012974 0.0035317 0.00278097 0.00323574 0.00325347 0.00347486 0.00333931 0.00616594 0.00308568 0.00218861 0.0027083 0.00196678
threshold=-0.022056959508495007 0.0010149999999999953 -0.096905963071131959 -0.013440185028310568 -0.087056286844403849 -0.00021464124628206568 -0.01186769680306393 -0.034874902055418593 0.028026334744741591 0.005116777804097917 -0.12475944229874124 -2.8544679250221897e-06 0.069440000000000016 0.012308094133023697 6.5921764871813024e-06 -0.0020779066575790091 0.00036082629253531012 2.4523544687870143e-06 0.0028099999999999796 0.012930041386780224 1.9375231764047897e-06 -0.041654528406060647 0.023045096251430256 -0.023209845577169371 -0.1267468771282583 0.0026973522613195082 -0.058788699909553481 -0.044374146887641512 -2.5522061542281572e-06 -0.061588300906061925
decision_type=10 8 10 10 10 8 10 8 8 10 10 10 10 8 10 10 10 10 8 8 10 10 10 10 10 10 10 10 10 10
left_child=1 2 -1 4 5 -3 7 -7 9 10 11 -9 -2 14 15 16 -14 -13 29 20 21 22 23 -20 25 -24 -26 28 -28 -5
right_child=12 3 -4 18 -6 6 -8 8 -10 -11 -12 17 13 -15 -16 -17 -18 -19 19 -21 -22 -23 24 -25 26 -27 27 -29 -30 -31
leaf_value=0.00089546458052826077 -4.267352249690912e-07 -0.00040942842183126641 -0.0019670111141673868 0.0002696381599300784 9.0358859268087094e-05 -8.8534615185510907e-05 -0.00021185137296992319 0.0016906006621535529 -0.00016099742774496831 0.0012902636465206832 0.00022567034959035295 -3.0930475755171339e-05 0.00044081112635987145 7.3361965404375153e-05 -0.0010829149762381955 -0.00066937878378666945 -0.00037145350477658218 0.0010064832073437304 -0.0011150590135142781 8.1194557919799074e-05 4.0862938431369196e-05 -6.9293256828753728e-05 -0.0022476246453152272 0.00016203282556998347 -0.00014820106128657546 -7.2870367677585994e-05 -0.00060514130401080135 -0.00016563120601252498 -0.0020215268061427329 1.9785323050183139e-05
leaf_weight=21 523751 22 24 488 742 28 27 22 21 52 53 22 42 144 36 60 45 28 26 2040 649 537 32 118 117 22 27 24 27 889
leaf_count=21 523751 22 24 488 742 28 27 22 21 52 53 22 42 144 36 60 45 28 26 2040 649 537 32 118 117 22 27 24 27 889
internal_value=0 4.79184e-05 -0.000631189 5.30007e-05 0.000187028 0.000447859 0.000522406 0.000610127 0.000708927 0.000812138 0.000613238 0.000898532 -5.53902e-07 -0.000204235 -0.000422672 -0.00026098 2.06742e-05 0.000550021 2.57177e-05 -5.71623e-06 -0.000118001 -0.000228865 -0.000446905 -6.85532e-05 -0.00066571 -0.00136161 -0.000472999 -0.000960195 -0.00131333 0.000108332
internal_weight=0 6058 45 6013 1017 275 253 226 198 177 125 72 524078 327 183 147 87 50 4996 3619 1579 930 393 144 249 54 195 78 54 1377
internal_count=530136 6058 45 6013 1017 275 253 226 198 177 125 72 524078 327 183 147 87 50 4996 3619 1579 930 393 144 249 54 195 78 54 1377
is_linear=0
shrinkage=0.1


Tree=10
num_leaves=31
num_cat=0
split_feature=20 11 9 5 5 24 5 22 13 5 2 5 5 5 5 12 22 1 12 5 14 15 12 14 22 16 12 15 15 5
split_gain=0.0013343 0.00261248 0.00281074 0.00242164 0.00202661 0.00197216 0.00136272 0.00172626 0.00130499 0.00148348 0.00137181 0.00208948 0.0068125 0.00273935 0.0017239 0.00130585 0.00122163 0.00114703 0.00111657 0.00110981 0.0010984 0.00102816 0.00153812 0.00102208 0.000988971 0.00119955 0.000986744 0.0008566 0.00082132 0.00661089
threshold=-0.12471147238192636 -0.013440185028310568 -0.0086166358445663432 2.4523544687870143e-06 -1.2476455330630248e-06 -0.00011297910680135857 -3.7602521274639694e-06 -0.015543905025849734 0.0022943167627131893 -1.7232109728209535e-06 0.0060049999999999973 1.1984427139858818e-06 4.0038190539862903e-06 8.683722891353069e-08 -6.4159436438075179e-06 -0.018254006687822785 -0.015543905025849734 0.01364500000000002 -0.009883655901269937 5.6447904986436078e-07 -0.036504833301916388 -0.019932728703242027 0.014824752082501004 -0.036504833301916388 -0.037931322067488719 -0.067300468943724143 0.0084042368568108001 0.035097754804626076 -0.063758572010334011 -1.3867263628338227e-08
decision_type=8 10 10 10 10 10 10 10 10 10 10 10 10 10 10 10 10 10 10 10 10 10 10 10 10 10 10 10 8 10
left_child=1 3 4 6 -3 -5 7 -1 10 17 11 13 -13 14 -4 -12 21 27 -16 -6 -20 22 -11 -17 25 -8 -19 -10 29 -2
right_child=28 2 8 5 19 -7 24 -9 9 16 15 12 -14 -15 18 23 -18 26 20 -21 -22 -23 -24 -25 -26 -27 -28 -29 -30 -31
leaf_value=0.0013561215926893057 -0.0001731295853630404 -0.0013737350116901905 0.00045671362745305222 0.00025373540988353358 0.00033053879787552261 0.0014760545056285055 0.00065521734138724935 0.00013971064638878619 2.6201410946669057e-05 2.8765821037735361e-05 0.00040361141514637502 -0.0020156737994208624 0.00021310263255145401 0.00084758292670875524 -0.00082017780126382922 0.00030229217985174126 0.00061427714655027646 0.00042668803396823241 -0.00058636423664456996 -0.00063874945669710915 0.00013545898004756928 -5.3652176447876913e-05 0.00064431448607820134 -1.9271867115557606e-05 -0.00040316720658570136 -0.00023467583107828562 0.0013850190274586733 0.00075540147675686364 -5.2989069889426491e-07 0.00025171696790935751
leaf_weight=20 631 22 31 22 21 33 33 28 49 111 99 24 32 29 39 113 44 21 37 27 49 287 64 789 38 28 22 24 526496 873
leaf_count=20 631 22 31 22 21 33 33 28 49 111 99 24 32 29 39 113 44 21 37 27 49 287 64 789 38 28 22 24 526496 873
internal_value=0 7.88768e-05 4.31353e-05 0.000421075 -0.000578958 0.000987127 0.000209287 0.000646549 6.64972e-05 0.000184732 7.28443e-06 -0.000206904 -0.000742087 -4.49021e-05 -0.000210813 5.88522e-05 0.000110789 0.000507279 -0.000376359 -0.000214686 -0.000175093 6.28376e-05 0.000253881 2.10128e-05 -2.71823e-06 0.000246742 0.000916997 0.000265938 -3.19093e-07 7.34735e-05
internal_weight=0 2136 1934 202 70 55 147 48 1864 622 1242 241 56 185 156 1001 506 116 125 48 86 462 175 902 99 61 43 73 528000 1504
internal_count=530136 2136 1934 202 70 55 147 48 1864 622 1242 241 56 185 156 1001 506 116 125 48 86 462 175 902 99 61 43 73 528000 1504
is_linear=0
shrinkage=0.1


Tree=11
num_leaves=31
num_cat=0
split_feature=20 11 5 1 5 14 21 11 15 5 10 11 9 0 14 9 15 5 5 24 9 13 11 16 8 21 5 5 5 14
split_gain=0.00112029 0.00326844 0.00196726 0.00152302 0.00197931 0.00139275 0.00289538 0.00675586 0.00571881 0.00370749 0.00265556 0.00152922 0.00129496 0.00126059 0.000949293 0.00113142 0.00099579 0.00160024 0.00143561 0.00109045 0.00148168 0.00143082 0.0010307 0.00099734 0.000944158 0.000924159 0.000901836 0.000854694 0.00120757 0.000841926
threshold=-0.10795917103118606 -0.013440185028310568 2.7084909202371397e-06 0.0029450000000000036 4.9161661070671278e-06 -0.046463240340385396 0.066311579093093279 0.011144598173663424 -0.063758572010334011 -4.6950315140199863e-06 -0.00061318523468772968 -0.00043738853469554856 0.006032543991522977 0.011454999999999995 -0.03103384895194616 -0.00024217766210071765 0.048449959905347513 1.0626251409374949e-06 -1.9733036752829697e-06 -1.0000000180025095e-35 -0.0086166358445663432 -0.014646835648970567 0.0032117793684611766 0.025888970078612576 -0.0061180248948133889 0.012025234091700867 6.7660363315253291e-07 -1.4341861314714484e-07 -2.8544679250221897e-06 0.049173497267759443
decision_type=8 10 10 10 10 10 10 10 10 10 10 10 10 10 10 10 10 10 10 10 10 10 10 10 10 10 10 10 10 10
left_child=1 2 24 -4 -5 6 9 8 -8 10 -3 25 14 -13 15 26 19 18 22 20 -16 -21 -18 -23 27 -11 -7 28 -1 -2
right_child=29 5 3 4 -6 12 7 -9 -10 11 -12 13 -14 -15 16 -17 17 -19 -20 21 -22 23 -24 -25 -26 -27 -28 -29 -30 -31
leaf_value=0.00062177981355137409 -1.6404019077840343e-07 -0.0016421808085093897 0.0015749413875164467 0.0013129926530382364 2.8691908228211104e-05 0.00025961717670657826 -0.0023147703974245814 0.00071442130948011972 -0.00021113788291889557 0.00013897990482870557 -0.00019497212005035181 -0.00031740846967295513 0.00024729050868299351 0.00036452677066824059 -0.00078988251253677951 -6.2484179301570885e-05 0.00089269343578572658 0.00092063643736764792 -0.00023919005973967015 0.00033084498103158291 -4.2605091116786191e-05 6.2634815432465593e-05 -1.0763610581583952e-05 -0.00023131847972928719 6.4386675496482185e-05 0.00071868499832238421 0.00085693356611018048 0.00087821148370173486 -0.00037487617693841456 -6.655648496237636e-05
leaf_weight=31 524116 21 20 20 30 108 28 23 24 55 32 80 295 41 27 85 28 30 59 180 1535 919 23 132 135 55 33 34 20 1917
leaf_count=31 524116 21 20 20 30 108 28 23 24 55 32 80 295 41 27 85 28 30 59 180 1535 919 23 132 135 55 33 34 20 1917
internal_value=0 5.20508e-05 0.000375684 0.000837421 0.000542412 2.74366e-05 -0.000160027 -0.000712656 -0.00134386 -1.4086e-05 -0.000768394 0.00015898 4.69211e-05 -8.63395e-05 2.82098e-05 0.000225692 1.2993e-05 0.000273248 9.66876e-05 -5.23416e-08 -5.55222e-05 7.03326e-05 0.000485252 2.57158e-05 0.000228768 0.000428832 0.000399415 0.000489845 0.000230934 -4.05991e-07
internal_weight=0 4103 290 70 50 3813 359 75 52 284 53 231 3454 121 3159 226 2933 140 110 2793 1562 1231 51 1051 220 110 141 85 51 526033
internal_count=530136 4103 290 70 50 3813 359 75 52 284 53 231 3454 121 3159 226 2933 140 110 2793 1562 1231 51 1051 220 110 141 85 51 526033
is_linear=0
shrinkage=0.1


Tree=12
num_leaves=31
num_cat=0
split_feature=13 0 20 0 0 19 15 8 16 16 10 18 12 6 12 24 4 18 2 21 6 6 15 24 9 18 6 20 18 6
split_gain=0.000961358 0.00189364 0.00705914 0.0014343 0.00231147 0.00271948 0.00384377 0.0026792 0.00219077 0.00185488 0.00229774 0.00164846 0.00164501 0.00157214 0.00155967 0.00442252 0.00432326 0.00303908 0.00257805 0.00197403 0.00196625 0.00415835 0.0129421 0.00194897 0.00250635 0.00148629 0.00282932 0.00194289 0.00163431 0.00168939
threshold=-0.022056959508495007 0.0010149999999999953 -0.096905963071131959 0.039285000000000007 0.043545000000000035 0.026219753662399484 -0.063758572010334011 0.0042820299174269891 0.10646732904031798 -0.057943920249812868 0.002711179630855987 0.020168929693031971 -0.015696411248149408 -6.4159436438075179e-06 -0.023209845577169371 -0.00011512153157366976 0.0033330000000000013 -0.058721066937721493 0.018015000000000007 0.0062925512098286349 -2.3224694089113678e-06 2.2526140131762614e-06 -0.063758572010334011 -0.00011683610449941816 -0.003695585689014846 -0.061588300906061925 -1.3810159458348413e-06 -0.055341173522991664 -0.076161345429892932 -2.8544679250221897e-06
decision_type=10 8 10 10 10 10 10 10 10 10 10 10 10 10 10 8 10 8 10 10 10 10 10 10 10 10 10 10 10 10
left_child=1 2 -1 8 -5 6 11 9 14 10 -7 -6 -9 -8 15 16 -3 19 -16 -17 -21 22 -22 25 -25 28 -27 -28 29 -18
right_child=-2 3 -4 4 5 7 13 12 -10 -11 -12 -13 -14 -15 18 17 23 -19 -20 20 21 -23 -24 24 -26 26 27 -29 -30 -31
leaf_value=0.00073227777777771868 -4.5784241664986449e-07 0.0011903373195474905 -0.0017782615353401827 0.00064527015499182177 0.00064356872233994574 -4.1617973168767472e-05 0.00071506352743156082 -0.001226176949210405 -0.00046062535682442384 0.00027766274040459394 -0.0012609510828042404 0.0017466180345218165 -0.00019598584863894259 6.1142782222428288e-05 3.2451574150602012e-05 0.0011924451599406895 -0.00063846500657169475 0.00013592131620595121 -0.00022368002233350568 0.0010105256576530843 -0.0023985773931989181 0.00063921029590779835 0.0007096019143244957 -0.00018478669645264744 -0.0016666916332074575 0.00023655026291125091 -0.0014752926715623795 -0.00041883687819271089 0.0007954339074785822 0.00012158183960184711
leaf_weight=21 524078 22 24 91 42 68 42 31 91 128 20 20 31 295 3480 40 41 631 443 45 21 105 37 25 21 41 27 49 24 102
leaf_count=21 524078 22 24 91 42 68 42 31 91 128 20 20 31 295 3480 40 41 631 443 45 21 105 37 25 21 41 27 49 24 102
internal_value=0 3.96079e-05 -0.000606677 4.44446e-05 0.000172079 0.000108474 0.00027577 -0.000131638 2.57558e-05 3.46842e-05 -0.000318739 0.000999391 -0.000711081 0.00014264 3.43434e-05 0.000132546 -0.000166976 0.000252492 3.52823e-06 0.000549087 0.000425365 0.000263817 -0.000415773 -0.000257463 -0.000861309 -0.000159657 -0.000432969 -0.000794157 3.18245e-05 -9.63337e-05
internal_weight=0 6058 45 6013 768 677 399 278 5245 216 88 62 62 337 5154 1231 352 879 3923 248 208 163 58 330 46 284 117 76 167 143
internal_count=530136 6058 45 6013 768 677 399 278 5245 216 88 62 62 337 5154 1231 352 879 3923 248 208 163 58 330 46 284 117 76 167 143
is_linear=0
shrinkage=0.1


Tree=13
num_leaves=31
num_cat=0
split_feature=20 11 9 8 24 5 8 2 24 13 5 12 2 12 1 13 11 21 18 5 1 16 8 13 16 16 14 5 1 22
split_gain=0.000958509 0.00174572 0.00193539 0.00188457 0.00255223 0.00171344 0.00150923 0.00148755 0.001181 0.00098538 0.00120359 0.00101896 0.000913544 0.000912661 0.000887598 0.000886609 0.000839769 0.000798717 0.00234289 0.00398287 0.002499 0.00354122 0.0016207 0.0014851 0.0029475 0.00146024 0.0024868 0.00294672 0.00193312 0.00166794
threshold=-0.12471147238192636 -0.013440185028310568 -0.0086166358445663432 -0.0061180248948133889 -0.00012429698008892262 1.8159807196622899e-06 -0.0026198517164490727 0.0060049999999999973 -6.2394720831249182e-05 0.0022943167627131893 -1.7232109728209535e-06 0.01974061286613216 0.0055299999999999941 -0.018254006687822785 0.01364500000000002 0.035371671406769341 0.005560770572848873 0.084019782732289397 0.17680011336800397 -1.9733036752829697e-06 0.0039049999999999992 0.10646732904031798 0.0022400879893981211 -0.016642785080400121 -0.087056286844403849 0.10646732904031798 0.02719207577264349 -2.8544679250221897e-06 0.023394999999999989 -0.0046904762419153192
decision_type=8 10 10 10 10 10 10 10 10 10 10 10 10 10 10 10 10 10 10 10 10 10 10 10 10 10 10 10 10 10
left_child=1 3 7 4 -1 -6 8 -3 -5 11 14 -4 15 -8 -11 -12 -13 18 -2 20 22 -22 -20 -19 -25 29 27 -27 -29 -26
right_child=17 2 9 6 5 -7 13 -9 -10 10 12 16 -14 -15 -16 -17 -18 23 19 -21 21 -23 -24 24 25 26 -28 28 -30 -31
leaf_value=-7.124204227390388e-05 -7.9977051038086912e-07 -0.00091393261839560155 2.2303970831615111e-05 -0.00088237600506070764 0.00067130413099221193 0.0017867795590843475 0.00061660104962040505 9.5462506744132216e-06 0.00016832945926580577 0.00023799206039306953 0.00056528066562759052 -4.2993582264032393e-05 2.4816357524934067e-05 -0.00016650210944300686 0.000810710938652804 -5.2627930708695208e-05 -0.00094840731988369946 0.00010872593146946519 7.2557533227760967e-05 -7.1045677723206244e-05 -0.0004067491120870479 -0.0021632098592817782 -0.0010501828329870478 -0.00067160998328795864 2.5701307846885218e-06 -0.00038232251471694034 -0.00030999812331401701 0.0012143249239306899 0.00018320235310511637 8.0994109402539861e-05
leaf_weight=30 509300 37 1201 23 40 21 46 33 20 73 69 21 402 22 43 35 20 1720 36 369 22 24 20 63 12288 98 360 20 200 3480
leaf_count=30 509300 37 1201 23 40 21 46 33 20 73 69 21 402 22 43 35 20 1720 36 369 22 24 20 63 12288 98 360 20 200 3480
internal_value=0 6.6853e-05 3.76361e-05 0.000346583 0.000683926 0.00105532 7.00229e-05 -0.000478578 -0.000393676 5.70218e-05 0.000159763 5.56848e-06 9.31592e-05 0.000363244 0.000450293 0.000357331 -0.000484659 -2.7045e-07 -1.00593e-06 -0.000223934 -0.00077703 -0.00132316 -0.000328421 2.02972e-05 1.10842e-05 1.36995e-05 -0.00013 7.37716e-05 0.000276941 1.98783e-05
internal_weight=0 2136 1934 202 91 61 111 70 43 1864 622 1242 506 68 116 104 41 528000 509771 471 102 46 56 18229 16509 16446 678 318 220 15768
internal_count=530136 2136 1934 202 91 61 111 70 43 1864 622 1242 506 68 116 104 41 528000 509771 471 102 46 56 18229 16509 16446 678 318 220 15768
is_linear=0
shrinkage=0.1


Tree=14
num_leaves=31
num_cat=0
split_feature=20 11 9 15 12 5 24 5 5 14 21 5 0 16 12 5 11 16 4 10 15 10 5 24 15 23 5 14 21 18
split_gain=0.000776392 0.00141403 0.00156767 0.00143804 0.00265453 0.00120329 0.00116476 0.0010252 0.000920011 0.00110067 0.00301347 0.00567054 0.00163551 0.00155246 0.00126652 0.00131589 0.00119194 0.00104597 0.00173601 0.00137915 0.00102111 0.00106133 0.000873641 0.000822141 0.000722707 0.000814493 0.000798682 0.000669183 0.000650392 0.0020116
threshold=-0.12471147238192636 -0.013440185028310568 -0.0086166358445663432 -0.049233191853458473 -0.0045507223695401824 2.4523544687870143e-06 -0.00011297910680135857 -4.6950315140199863e-06 -6.4159436438075179e-06 -0.046463240340385396 0.066311579093093279 2.2526140131762614e-06 0.0061000000000000021 -0.041588136902242605 0.025290105665125243 1.1984427139858818e-06 -0.0006368340252145831 -0.011818810728478788 0.0091992499999999991 0.0037701756262620294 -0.0064142614877597528 0.0015524751938116312 3.1101223590580246e-07 -0.00018460393839525577 -0.037526390916629952 0.005116777804097917 -4.0422691765158163e-07 0.01539793736944506 0.092648587166859989 0.17680011336800397
decision_type=8 10 10 10 10 10 10 10 10 10 10 10 10 10 10 10 10 10 10 10 10 10 10 10 10 10 10 10 10 10
left_child=1 5 3 4 -3 7 -7 -1 -4 10 12 -12 -10 14 23 -16 -14 18 19 -15 -19 27 -20 -11 25 26 -9 -22 29 -2
right_child=28 2 8 -5 -6 6 -8 24 9 13 11 -13 16 17 15 -17 -18 20 22 -21 21 -23 -24 -25 -26 -27 -28 -29 -30 -31
leaf_value=0.00064407818170045229 -6.3075749659572276e-07 -0.0015575172424240175 0.00045423288734375761 0.00014126996705912193 1.4317015739791152e-05 0.00014732240709814835 0.001086681058178797 -0.00070929612240810274 -0.00077516109061737852 0.00056773976215481522 -0.0020365035484163937 0.00029003675561398271 0.00038258327323387951 -0.00052656933993915176 0.0009612615600837252 0.00012285128626293346 -0.00013123183068613562 -1.9135754511398132e-05 0.00018072123047147671 9.6320637233778453e-05 0.00040173955986156712 1.5443848011879404e-05 -0.00019606333490173713 0.00010129321202983306 0.00040326776523964808 0.000403361458593281 2.6662191182064513e-05 0.0011196891922736541 2.1090904126282349e-05 -0.00020673249472016894
leaf_weight=34 513613 22 55 27 21 22 33 29 24 40 22 20 83 137 39 36 99 213 160 48 37 48 100 683 34 20 30 20 13913 474
leaf_count=34 513613 22 55 27 21 22 33 29 24 40 22 20 83 137 39 36 99 213 160 48 37 48 100 683 34 20 30 20 13913 474
internal_value=0 6.01677e-05 3.38725e-05 -0.00043072 -0.000789877 0.000311925 0.000710938 0.000162634 5.13196e-05 3.90696e-05 -0.000156628 -0.000928627 7.69875e-07 7.01606e-05 0.000167675 0.000558825 0.00010309 -3.1827e-05 -0.000130803 -0.000364955 0.000106678 0.0003619 3.58041e-05 0.000127099 1.77753e-05 -0.000148133 -0.00033508 0.000653652 -2.43407e-07 -8.20788e-07
internal_weight=0 2136 1934 70 43 202 55 147 1864 1809 248 42 206 1561 798 75 182 763 445 185 318 105 260 723 113 79 59 57 528000 514087
internal_count=530136 2136 1934 70 43 202 55 147 1864 1809 248 42 206 1561 798 75 182 763 445 185 318 105 260 723 113 79 59 57 528000 514087
is_linear=0
shrinkage=0.1


Tree=15
num_leaves=31
num_cat=0
split_feature=20 11 5 23 22 18 14 12 5 0 5 5 22 15 22 14 12 5 12 14 18 12 21 5 4 15 15 1 5 18
split_gain=0.000665398 0.00196413 0.00114636 0.00333693 0.00237751 0.00184479 0.00208328 0.00166484 0.00137119 0.00104486 0.0013147 0.000967494 0.000918076 0.00129875 0.001295 0.0015145 0.00101585 0.000960085 0.00443556 0.00158216 0.0013446 0.00133914 0.00105258 0.00139552 0.00103066 0.00133025 0.00115644 0.000807865 0.00114284 0.000768349
threshold=-0.10795917103118606 -0.013440185028310568 -3.7602521274639694e-06 -0.030024463095972561 -0.026071440376373042 -0.12274677655779197 -0.024987277656110914 0.0091629653520721738 1.0626251409374949e-06 0.023535000000000018 2.7084909202371397e-06 9.1286614781940696e-07 -0.082195211618962802 0.035097754804626076 -0.14998900221030384 -0.036504833301916388 0.0050473574470745195 2.0810900932660711e-06 -0.023209845577169371 -0.0084547169138767236 -0.12274677655779197 0.025290105665125243 0.027298126363086598 4.0038190539862903e-06 0.0089639999999999997 -0.0048154866061622106 -0.029656196974028267 0.0029450000000000036 -3.7602521274639694e-06 -0.12274677655779197
decision_type=8 10 10 10 10 10 8 10 10 10 10 10 10 10 10 10 10 10 10 10 10 10 10 10 10 10 10 10 10 10
left_child=1 9 3 -3 12 6 7 -5 -6 10 11 27 13 14 -4 -16 -15 18 -14 22 21 -20 23 -19 26 -26 -22 -1 -29 -12
right_child=-2 2 4 5 8 -7 -8 -9 -10 -11 29 -13 17 16 15 -17 -18 19 20 -21 24 -23 -24 -25 25 -27 -28 28 -30 -31
leaf_value=0.00066596570777276284 -3.1289023594019243e-07 0.00011793498479699552 -2.336922721853731e-06 0.00032139745107040082 0.00063309435073261196 -0.0013620518243405968 -0.0012398383308512471 -0.00075654558528660115 -6.1766735743731262e-06 -5.8693250431326421e-05 0.00052829292011059197 -0.00029559204914322542 -0.0012905155795281112 -4.066205652374525e-05 0.00085690567939309412 0.00014459085091197974 0.00081823202832310938 0.00065368321149435367 2.2256305058015461e-05 -0.00013381852828461962 0.00042697870556730782 0.00079669905772670579 0.00081352862657811979 -0.00011409740001344572 -0.00054975642703048095 -0.00012795846397888272 -0.00010789929173633118 0.00048987629519875301 -0.00024086330231511968 0.0012894176623030077
leaf_weight=53 526033 153 1205 38 102 25 21 23 50 66 36 27 29 21 32 444 40 40 764 111 50 23 39 58 113 221 211 49 38 21
leaf_count=53 526033 153 1205 38 102 25 21 23 50 66 36 27 29 21 32 444 40 40 764 111 50 23 39 58 113 221 211 49 38 21
internal_value=0 4.01146e-05 2.10337e-05 -0.000181659 3.58662e-05 -0.00061005 -0.000380781 -8.50401e-05 0.000422808 0.000290996 0.00039403 0.000252493 1.85728e-05 6.9276e-05 5.28277e-05 0.000192478 0.000522547 -3.46671e-05 -6.656e-05 0.000146788 -4.08764e-05 4.48893e-05 0.000374141 0.000199282 -0.000154318 -0.000270663 -5.43224e-06 0.000358195 0.000170703 0.000808707
internal_weight=0 4103 3813 260 3553 107 82 61 152 290 224 167 3401 1742 1681 476 61 1659 1411 248 1382 787 137 98 595 334 261 140 87 57
internal_count=530136 4103 3813 260 3553 107 82 61 152 290 224 167 3401 1742 1681 476 61 1659 1411 248 1382 787 137 98 595 334 261 140 87 57
is_linear=0
shrinkage=0.1


Tree=16
num_leaves=31
num_cat=0
split_feature=13 0 20 1 23 15 19 18 5 18 16 1 12 18 24 4 17 10 20 12 24 5 0 8 16 20 16 0 5 11
split_gain=0.000609426 0.00171178 0.00532265 0.00123652 0.00324079 0.00289989 0.00406266 0.00287982 0.00238658 0.00401357 0.00311845 0.00435235 0.00588932 0.00205892 0.00161217 0.0015443 0.00310624 0.00145913 0.00180482 0.00120135 0.0017096 0.00121847 0.00120113 0.00161689 0.00272347 0.00153427 0.00140842 0.00159085 0.00132927 0.00119009
threshold=-0.022056959508495007 0.0010149999999999953 -0.096905963071131959 0.0028099999999999796 0.012930041386780224 -0.063758572010334011 0.045484718917039764 0.034852023117943783 2.113459138208151e-08 -0.12274677655779197 -0.022173417062990804 0.0031449999999999955 -0.023209845577169371 -0.061588300906061925 0.0001632253336588674 0.024017000000000007 -0.07774454361142856 0.00073536277907115821 0.11602106051571127 -0.013968183041272007 -0.00011683610449941816 -6.4159436438075179e-06 0.074275000000000022 0.0042820299174269891 -0.057943920249812868 0.057420983019864875 0.10646732904031798 0.025649999999999996 -1.0498331532550075e-06 0.005560770572848873
decision_type=10 8 10 10 10 10 10 10 10 10 10 10 10 8 10 10 10 10 10 10 10 10 10 10 10 10 10 10 10 10
left_child=1 2 -1 13 8 6 7 -6 9 19 11 12 -11 15 -13 29 -17 18 -8 20 -5 -22 26 24 25 -24 -7 28 -28 -3
right_child=-2 3 -4 4 5 22 17 -9 -10 10 -12 14 -14 -15 -16 16 -18 -19 -20 -21 21 -23 23 -25 -26 -27 27 -29 -30 -31
leaf_value=0.00057973224126423408 -3.6452911004112985e-07 0.00024982937061155866 -0.001600260978981775 -3.36983978568979e-05 0.00054289187698706325 8.5068437193129727e-05 0.00075626336340792481 0.0017261881624581294 1.0597374798531129e-05 -0.00245241000399498 3.323377208026923e-05 -0.00026517781362938464 -0.00040642903665738072 2.5656184273512112e-05 -0.00083736776826169406 0.0016784008653220638 9.0540294141711853e-05 -0.0008175049913520723 -0.00040316792402681411 -0.00010897449513168057 0.0013237307945490574 0.000373693087870682 -1.176643542878862e-06 -0.001049538408617743 0.00065566455096131902 -0.0012249976559542122 -0.00096962265634902988 0.0003337852844197187 -9.6654958730196631e-05 -0.00031649284850573169
leaf_weight=21 524078 513 24 37 116 1988 25 25 1090 24 194 408 34 1063 56 22 28 23 29 53 27 27 21 22 30 20 37 28 33 40
leaf_count=21 524078 513 24 37 116 1988 25 25 1090 24 194 408 34 1063 56 22 28 23 29 53 27 27 21 22 30 20 37 28 33 40
internal_value=0 3.15355e-05 -0.000582931 3.61341e-05 8.06049e-06 8.59383e-05 0.00043368 0.000752696 -8.76693e-05 -0.000212217 -0.000309098 -0.000436325 -0.00125304 0.000109385 -0.000334235 0.000256986 0.000789199 -0.000150492 0.000133606 0.0002695 0.00048993 0.000848712 5.11481e-05 -0.000300479 -6.83764e-05 -0.000598163 6.68247e-05 -0.000303262 -0.000558081 0.000208866
internal_weight=0 6058 45 6013 4347 2397 218 141 1950 860 716 522 58 1666 464 603 50 77 54 144 91 54 2179 93 71 41 2086 98 70 553
internal_count=530136 6058 45 6013 4347 2397 218 141 1950 860 716 522 58 1666 464 603 50 77 54 144 91 54 2179 93 71 41 2086 98 70 553
is_linear=0
shrinkage=0.1


Tree=17
num_leaves=31
num_cat=0
split_feature=18 13 14 15 5 2 5 16 5 14 5 12 13 2 5 5 5 12 11 5 15 14 5 2 16 12 12 8 23 13
split_gain=0.000566599 0.00226334 0.00293532 0.00238018 0.00508211 0.0019911 0.00428632 0.00258116 0.00195348 0.00186582 0.00180275 0.00169595 0.00168597 0.00175534 0.00157723 0.00135976 0.00130682 0.00169789 0.00129813 0.00272674 0.00126145 0.00119458 0.0011459 0.00125843 0.0011141 0.00110909 0.001386 0.00102964 0.000993969 0.00248531
threshold=0.17680011336800397 0.0079072933826283016 0.0027555863642069194 0.074026476598646487 -1.0052651106397797e-06 0.00070500000000001128 1.3819058191244195e-06 0.044733224289001068 -6.4159436438075179e-06 0.016714096058420561 3.0337782722263891e-06 -0.013968183041272007 0.02741275586243919 0.0051749999999999999 -3.1904338169820943e-06 6.5921764871813024e-06 2.0810900932660711e-06 0.0091629653520721738 -0.0052319987560096584 -2.7393400388413202e-07 0.026204566894357243 0.039320407145688192 1.7053392659960508e-06 0.00046500000000000019 0.060595461968476878 0.0019711681459289036 0.014824752082501004 -0.0021938545034926866 0.12922692527286231 0.023500971220512982
decision_type=10 10 10 10 10 10 10 10 10 10 10 10 10 10 10 10 10 10 10 10 10 10 10 10 10 10 10 10 10 10
left_child=-1 2 11 4 8 6 7 -4 24 -9 21 -2 -5 15 -13 25 -8 -18 19 -7 22 -6 23 -16 -3 -14 -27 -15 -12 -30
right_child=1 3 5 12 10 18 16 9 -10 -11 28 14 13 27 20 -17 17 -19 -20 -21 -22 -23 -24 -25 -26 26 -28 -29 29 -31
leaf_value=2.0832550738847527e-07 0.00017128738918842379 0.0014066272025482487 0.00010836234396265354 -3.2213202779530551e-05 -0.000238226386575751 -0.0012908853945277987 -0.00047889408015180381 0.00080816422456392138 0.00019481945684356549 0.001897814960878653 -0.00013823091055289091 -0.00077092559099233211 -0.00090439321053133398 -0.00053017526106150068 -0.00090554462856909433 -0.00095458638825220989 0.00045861919502385721 -0.0004145021506199806 0.00014610312382705608 0.00012897652696593516 0.0002378094634369225 -0.00066174876104422111 -0.0010092435689875857 -8.906921684683767e-05 0.00043266658173403514 0.00038707396678445451 -0.00030965666742749029 -0.0013883086278681355 -0.00015937993458565972 0.0011236837129847399
leaf_weight=527992 123 23 24 125 284 21 30 33 206 30 93 52 23 27 22 32 96 29 245 38 59 87 20 133 24 36 138 29 36 26
leaf_count=527992 123 23 24 125 284 21 30 33 206 30 93 52 23 27 22 32 96 29 245 38 59 87 20 133 24 36 138 29 36 26
internal_value=0 -5.13033e-05 6.33406e-05 -0.000143385 -4.07402e-05 0.000215078 0.00042911 0.000990857 0.000327546 0.00132705 -0.000217882 -0.000139223 -0.00033841 -0.000472707 -0.000272764 -0.000349982 0.000113807 0.000256055 4.46966e-05 -0.000376398 -0.000162061 -0.000337543 -0.000296875 -0.000204956 0.000909286 -0.000251772 -0.000165506 -0.000974566 6.85331e-05 0.000378679
internal_weight=0 2144 955 1189 779 546 242 87 253 63 526 409 410 285 286 229 155 125 304 59 234 371 175 155 47 197 174 56 155 62
internal_count=530136 2144 955 1189 779 546 242 87 253 63 526 409 410 285 286 229 155 125 304 59 234 371 175 155 47 197 174 56 155 62
is_linear=0
shrinkage=0.1


Tree=18
num_leaves=31
num_cat=0
split_feature=21 18 5 1 15 17 5 15 1 5 16 14 1 14 9 9 24 19 5 15 15 5 10 1 12 4 16 13 16 11
split_gain=0.000522739 0.00123361 0.00300283 0.00200077 0.00256136 0.00114308 0.00145518 0.00176671 0.00114474 0.00186111 0.00284903 0.00180517 0.00249459 0.00223691 0.0019008 0.00166952 0.00156321 0.0014685 0.00376789 0.00129918 0.00129181 0.00182318 0.00123379 0.00115766 0.00121768 0.00112015 0.00113428 0.00111647 0.00182262 0.00160477
threshold=0.084019782732289397 0.17680011336800397 -1.9733036752829697e-06 0.0039049999999999992 0.074026476598646487 -0.010771505669562751 4.9161661070671278e-06 -0.037526390916629952 0.05395500000000001 -2.3224694089113678e-06 0.10646732904031798 0.02719207577264349 0.022229999999999996 0.049173497267759443 0.0053805373762060302 -0.0047742192162323885 3.0181065315160186e-05 0.0097009024291310215 6.5921764871813024e-06 0.057637514068903613 0.011241432197873548 6.1698183596125613e-07 0.011139238656404428 0.02476999999999999 -0.012839889591541307 0.011280999999999999 -0.052560372711111407 0.016200273606548524 0.047877903976888299 0.014422640877021721
decision_type=10 10 10 10 10 10 10 10 10 10 10 10 10 10 10 10 10 10 10 10 10 10 10 10 10 10 10 10 10 10
left_child=1 -1 3 -3 -5 6 7 -2 9 10 11 23 -13 -14 15 -15 -17 18 -10 20 -19 -22 -12 24 -7 -25 -27 28 -4 -29
right_child=5 2 27 4 -6 8 -8 -9 17 -11 22 12 13 14 -16 16 -18 19 -20 -21 21 -23 -24 25 -26 26 -28 29 -30 -31
leaf_value=-4.4358933993720702e-07 -0.00047517775965388864 -0.00024119989438986522 -0.00025572497632476206 -0.00038507253073317852 -0.001877475222990261 0.00028821647195012936 0.0009261264482810131 0.00036966814236570877 0.0010634421414023464 1.059620358720078e-05 -0.00013031713377970917 3.660571524815168e-05 0.0012187164762745735 -3.5683972796855064e-05 -0.0001303410750882573 0.0014103485109940679 0.00049534135015524361 -0.00013324178873137866 -0.00053461660910397767 -0.00064053748570759561 -8.62780781342787e-05 0.00039445393149291043 -0.00089015359499171613 -0.00020789126599935577 -0.00010902503246763406 0.00093978221160465514 0.00020880182615791239 -0.00042824475194803876 0.00032117477592566565 0.00043290783263122043
leaf_weight=511436 34 56 88 23 23 101 29 91 36 14992 195 125 46 26 44 33 43 989 25 42 211 126 24 63 327 22 605 109 145 27
leaf_count=511436 34 56 88 23 23 101 29 91 36 14992 195 125 46 26 44 33 43 989 25 42 211 126 24 63 327 22 605 109 145 27
internal_value=0 -5.92563e-07 -0.000162355 -0.000642606 -0.00113127 1.66404e-05 0.000287931 0.00013987 1.4329e-05 2.17025e-05 0.000122371 0.000173642 0.000384275 0.000610622 0.00041903 0.000656014 0.000892647 -7.15631e-05 0.0004085 -9.29694e-05 -7.56256e-05 9.34615e-05 -0.000213587 0.000113919 -1.52835e-05 0.000194063 0.00023445 -2.96033e-05 0.00010329 -0.000257281
internal_weight=0 511907 471 102 46 18229 154 125 18075 16646 1654 1435 317 192 146 102 76 1429 61 1368 1326 337 219 1118 428 690 627 369 233 136
internal_count=530136 511907 471 102 46 18229 154 125 18075 16646 1654 1435 317 192 146 102 76 1429 61 1368 1326 337 219 1118 428 690 627 369 233 136
is_linear=0
shrinkage=0.1


Tree=19
num_leaves=31
num_cat=0
split_feature=20 11 8 24 5 8 24 5 23 22 8 11 5 11 23 21 14 5 15 14 11 10 9 14 15 12 21 13 24 1
split_gain=0.000497353 0.0014708 0.00110316 0.00146742 0.0012044 0.00110882 0.000905386 0.000891833 0.00258564 0.00191476 0.00141865 0.00152473 0.00117576 0.000978886 0.000838622 0.000789488 0.00377024 0.0086193 0.00359807 0.00128045 0.000784149 0.000782109 0.000762261 0.000730119 0.00120125 0.0012827 0.00120813 0.00145966 0.00107354 0.00104844
threshold=-0.10795917103118606 -0.013440185028310568 -0.0061180248948133889 -0.00012429698008892262 1.2539858907326384e-07 -0.0021938545034926866 -9.6604602304262141e-05 -3.7602521274639694e-06 -0.030024463095972561 -0.026071440376373042 -0.0041419522190458405 -0.0052319987560096584 -5.2925473114488728e-07 0.0065807778858493213 -0.0059738933810806185 0.077562032220009028 -0.036504833301916388 2.0810900932660711e-06 -0.049233191853458473 0.030041980482594103 -0.0019391118867558286 -0.0014969144850200398 0.00098179319083568938 -0.03103384895194616 -0.0068573060091853813 -0.0038863613011491656 0.0057572543396147155 -0.03282196398509462 -0.00011297910680135857 0.0043449999999999886
decision_type=8 10 10 10 10 10 10 10 10 10 10 10 10 10 10 10 10 10 10 10 10 10 10 10 10 10 10 10 10 10
left_child=1 2 3 -1 -5 6 -4 8 21 15 -10 -12 -11 -13 -7 23 17 -17 -18 -20 -21 -3 -14 24 25 26 -9 28 -28 -29
right_child=-2 7 5 4 -6 14 -8 9 10 12 11 13 22 -15 -16 16 18 -19 19 20 -22 -23 -24 -25 -26 -27 27 29 -30 -31
leaf_value=-3.2391563045645232e-05 -2.7050962252422388e-07 0.00046472764833049238 -0.00064236294379513541 0.00032295768542098816 0.00108531638841161 9.6294179547840039e-05 8.0656555097490605e-05 8.9959199828385579e-05 -0.0012745676735080669 0.00068761773825372081 0.00040712580841500311 -0.00098653327597730822 0.0004367634398499277 -0.00021594308392891169 0.0007169088791477297 -0.002041121651739653 0.0010500757258463031 0.00065736391057726008 0.00017667651394229577 6.3170878420351073e-05 -0.00068210661950918921 -3.8249996951807674e-05 -0.00016588679819231107 1.0298777993390814e-05 -0.00048560422340718408 -3.9549553908262828e-05 -0.00036949911635652508 0.00060165032967537024 0.00058656614604236284 0.0014282070417677808
leaf_weight=38 526033 43 29 40 43 64 43 98 21 68 20 32 41 34 33 29 30 20 58 20 48 110 43 2813 27 133 23 57 24 21
leaf_count=38 526033 43 29 40 43 64 43 98 21 68 20 32 41 34 33 29 30 20 58 20 48 110 43 2813 27 133 23 57 24 21
internal_value=0 3.46812e-05 0.000251781 0.000482281 0.000717915 8.67487e-05 -0.00021056 1.81696e-05 -0.000160611 3.12523e-05 -0.000537706 -0.000357775 0.000378501 -0.000589563 0.000307431 1.57328e-05 -0.000174505 -0.000939699 6.58449e-05 -0.000168496 -0.000462907 0.00010311 0.000128264 2.79351e-05 0.000157468 0.00020624 0.000352832 0.000558924 0.000118704 0.000824185
internal_weight=0 4103 290 121 83 169 72 3813 260 3553 107 86 152 66 97 3401 205 49 156 126 68 153 84 3196 383 356 223 125 47 78
internal_count=530136 4103 290 121 83 169 72 3813 260 3553 107 86 152 66 97 3401 205 49 156 126 68 153 84 3196 383 356 223 125 47 78
is_linear=0
shrinkage=0.1


Tree=20
num_leaves=31
num_cat=0
split_feature=5 23 14 4 18 17 2 2 20 14 15 11 14 15 1 23 19 21 18 15 14 16 17 13 15 13 5 14 15 24
split_gain=0.000468649 0.00229244 0.00210429 0.00187729 0.00200703 0.00190607 0.00390591 0.00206524 0.00160682 0.0031843 0.00175174 0.00167294 0.00209985 0.00134262 0.00173718 0.00126328 0.00268089 0.00201839 0.00147021 0.00122619 0.00137605 0.00122071 0.0023049 0.00277409 0.00272349 0.00119224 0.0012983 0.00157975 0.00119042 0.00113964
threshold=6.5921764871813024e-06 0.12922692527286231 0.049173497267759443 0.019410750000000008 0.10450401964304303 0.13141253689966129 0.0021400000000000104 0.0055299999999999941 0.05379569678336172 -0.019200846688841974 0.032544374087354784 0.0062028663838106244 0.021596415507730619 -0.063758572010334011 0.013475000000000003 0.12922692527286231 0.012456796825084606 0.15107066588803156 0.17680011336800397 -0.0033281412127402761 -0.024987277656110914 0.080339915246792085 0.17347478213556558 0.005034535204427871 0.048449959905347513 0.0020272977256475815 4.0038190539862903e-06 0.025048729162028053 -0.029656196974028267 -1.0000000180025095e-35
decision_type=10 10 10 10 10 10 10 10 10 10 10 10 10 10 10 10 10 10 10 10 10 10 10 10 10 10 10 10 10 10
left_child=15 2 13 5 -5 7 -7 -4 -3 -10 -11 12 -12 14 29 18 -17 21 -1 28 -21 -18 -23 24 -24 26 27 -22 -20 -2
right_child=1 8 3 4 -6 6 -8 -9 9 10 11 -13 -14 -15 -16 16 17 -19 19 20 25 22 23 -25 -26 -27 -28 -29 -30 -31
leaf_value=1.3994560855577589e-07 -0.00047423271236766594 0.00022701048175804316 0.00014634421484368282 -8.093970750148099e-05 -0.0011368838594191606 -0.00039551546063739805 0.0014794034638907763 -0.00090325451004135088 -0.00099821364797912475 0.00051043816880943875 1.1992736697374356e-05 0.00015186979133951747 -0.0013010258377044951 -9.1868580283041093e-06 0.00049970737743424256 0.0012287744291825222 0.00050918267691832896 1.9989236195994398e-05 -0.00052575379889711492 -0.00074233905006376277 4.2090740768495987e-05 -0.00027263746850497808 0.00034551379906658372 0.00010376779489297795 0.0018976877478417012 -0.0001898919626961399 0.00047500605864375504 -0.00065184379008745687 0.0002472077198564308 0.00023876801203062085
leaf_weight=524526 40 40 37 30 45 25 20 38 71 30 21 35 29 1477 125 20 139 1759 23 37 240 88 26 117 20 784 56 38 149 51
leaf_count=524526 40 40 37 30 45 25 20 38 71 30 21 35 29 1477 125 20 139 1759 23 37 240 88 26 117 20 784 56 38 149 51
internal_value=0 -4.69898e-05 -1.0961e-05 -0.000322034 -0.000714506 -7.67396e-05 0.000437782 -0.000385452 -0.000347974 -0.000471626 -0.000146516 -0.000378382 -0.000749558 2.48685e-05 0.000257737 1.88128e-07 7.6348e-05 6.56228e-05 -1.26011e-07 -0.000105251 -0.000142346 0.000271442 0.000139784 0.000362441 0.00102037 -0.000122489 3.57247e-05 -5.27636e-05 0.000143847 -7.46389e-05
internal_weight=0 2114 1888 195 75 120 45 75 226 186 115 85 50 1693 216 528022 2169 2149 525853 1327 1155 390 251 163 46 1118 334 278 172 91
internal_count=530136 2114 1888 195 75 120 45 75 226 186 115 85 50 1693 216 528022 2169 2149 525853 1327 1155 390 251 163 46 1118 334 278 172 91
is_linear=0
shrinkage=0.1


Tree=21
num_leaves=31
num_cat=0
split_feature=15 21 13 24 19 24 2 6 16 2 18 2 18 15 19 11 20 4 16 15 21 6 4 22 18 0 4 22 21 18
split_gain=0.000502187 0.00365846 0.00206372 0.00352189 0.00286554 0.00345611 0.00383404 0.00427748 0.0043352 0.00393823 0.00355636 0.00343533 0.00227562 0.00201217 0.00197768 0.00175016 0.00153518 0.00151535 0.00145955 0.00234688 0.00178638 0.00154111 0.00149128 0.00176442 0.00156137 0.00135881 0.00132989 0.00135852 0.00239138 0.0016679
threshold=0.048449959905347513 0.00086217685788447806 0.02741275586243919 -4.799309260611339e-05 0.16994252334063711 -5.7354344029036934e-05 0.00077499999999999108 -6.4159436438075179e-06 0.080339915246792085 0.00070500000000001128 0.10450401964304303 0.0084749999999999982 0.079553781341388921 0.074026476598646487 0.012760685457680944 0.0043432342810998401 0.092546982317777263 0.035106750000000006 0.10646732904031798 0.074026476598646487 0.014393202276079655 6.5921764871813024e-06 0.011996250000000005 -0.010800540844277616 0.17680011336800397 0.012230000000000006 0.012974250000000001 -0.041135656166460248 0.10027867442816508 -0.076161345429892932
decision_type=8 8 10 10 10 10 10 10 10 10 10 10 10 10 8 10 10 10 10 10 10 10 10 10 10 10 10 10 10 10
left_child=-1 -2 17 4 5 6 9 11 14 12 13 -8 -4 -7 15 -9 -10 26 20 -20 -5 -21 -22 -24 -25 -6 -3 28 29 -28
right_child=1 2 3 18 25 10 7 8 16 -11 -12 -13 -14 -15 -16 -17 -18 -19 19 21 22 -23 23 24 -26 -27 27 -29 -30 -31
leaf_value=-3.3638859337179308e-07 -0.0012895180535408492 2.7965259816635248e-05 0.00074966818311026902 -0.00062705435399439634 -9.7018415625724523e-05 0.00094790958312594091 -9.8073423214373181e-05 0.0007621551365211359 -0.00029355318131365495 0.0015446072372416145 0.001904179884253868 0.0014846234571450623 -0.00058228318989479353 -0.00017406745166461464 -0.00015662750576232775 5.6213936261849962e-05 -0.00096270270531780022 -0.00066365631615294008 0.00029634198389372771 -0.00036983582646956038 -0.00020910871321181882 -0.0010509793186942353 -5.5725315593585918e-05 0.00069161466997482227 -0.00010068888200054829 -0.00093463809826062067 0.00080268052201804333 0.00018704326695661753 -0.00092873558859099406 -1.1990381642183222e-05
leaf_weight=523878 21 2563 29 59 45 33 24 62 80 34 21 32 23 31 151 81 60 28 47 224 335 39 276 72 38 34 27 1399 27 363
leaf_count=523878 21 2563 29 59 45 33 24 62 80 34 21 32 23 31 151 81 60 28 47 224 335 39 276 72 38 34 27 1399 27 363
internal_value=0 2.81602e-05 3.25969e-05 -5.66685e-05 0.0001117 0.000179729 9.18897e-05 -1.6196e-05 -0.000122328 0.000707727 0.000774973 0.000806325 0.000160536 0.000404452 9.57694e-05 0.000362286 -0.000580332 6.96642e-05 -0.000170973 -0.000354527 -9.80227e-05 -0.000470842 -5.47317e-05 7.92484e-05 0.00041791 -0.000457513 7.43532e-05 0.000139822 -1.85995e-05 4.44099e-05
internal_weight=0 6258 6237 1830 740 661 576 490 434 86 85 56 52 64 294 143 140 4407 1090 310 780 263 721 386 110 79 4379 1816 417 390
internal_count=530136 6258 6237 1830 740 661 576 490 434 86 85 56 52 64 294 143 140 4407 1090 310 780 263 721 386 110 79 4379 1816 417 390
is_linear=0
shrinkage=0.1


Tree=22
num_leaves=31
num_cat=0
split_feature=21 13 16 14 24 18 9 19 22 0 16 14 13 8 12 17 12 12 4 16 20 18 5 24 24 15 12 20 11 14
split_gain=0.000435351 0.00108137 0.00207236 0.00145261 0.00118067 0.00110403 0.00145297 0.00106444 0.000994355 0.00142022 0.00271886 0.00205499 0.001672 0.00164107 0.00141243 0.00106073 0.00193873 0.00191635 0.00140964 0.000989114 0.00391707 0.00292215 0.00116796 0.00161638 0.00148902 0.00147446 0.00162106 0.00100621 0.00192167 0.00151038
threshold=0.084019782732289397 -0.01070986253400674 -0.087056286844403849 0.030041980482594103 -4.4736465680483832e-05 0.11904191058098125 -0.0024956211093106746 -0.014523290556015976 -0.0046904762419153192 0.022969999999999994 0.10646732904031798 0.004336481020661199 0.0061533096116948025 -0.0061180248948133889 -0.0048883298494590824 0.14601620118486283 0.0074542002763098312 0.025290105665125243 0.013873749999999994 -0.087056286844403849 0.05379569678336172 0.034852023117943783 1.1500556174495444e-06 -1.0000000180025095e-35 -1.0000000180025095e-35 -0.049233191853458473 -0.013968183041272007 0.14592046326313449 0.005560770572848873 -0.03103384895194616
decision_type=10 8 10 10 10 10 10 10 10 10 10 10 10 10 10 10 10 10 10 10 10 10 10 10 10 10 10 10 10 10
left_child=-1 3 -3 4 -2 -5 -7 -4 -9 -10 11 -11 -12 -13 -15 16 -16 18 -17 20 21 -6 23 25 -24 -21 -27 28 -26 -30
right_child=1 2 7 5 19 6 -8 8 9 10 12 13 -14 14 15 17 -18 -19 -20 22 -22 -23 24 -25 27 26 -28 -29 29 -31
leaf_value=-5.4076941393786207e-07 0.00019566760921839642 -0.00059760161555523321 0.00053509925151286699 1.486289935807387e-06 0.00030564216908831633 9.4643784104846422e-05 0.0011811701003807684 -9.3211797041586729e-06 9.2767621028939355e-06 6.7353658368434846e-05 0.00032811388793857607 -0.00032741248407676594 -0.00016920863535336981 -1.7466833826172383e-05 0.00015493538151283495 0.0011914817973485532 0.0013185939853783788 -8.1646917519634065e-05 0.00047861653977518989 -0.00094933280197437861 -0.00059773061075247831 0.0017687795750264612 0.00052206270625808826 9.1739180753463599e-05 -0.00011993418496751116 0.00056485815038437683 -0.00050219490982791675 0.00011821165774093662 -0.0014196803229251168 -0.0002340312306345864
leaf_weight=511907 515 57 38 30 39 20 32 11430 2527 306 86 28 316 52 22 33 41 53 174 28 29 21 39 1485 573 24 35 153 21 22
leaf_count=511907 515 57 38 30 39 20 32 11430 2527 306 86 28 316 52 22 33 41 53 174 28 29 21 39 1485 573 24 35 153 21 22
internal_value=0 1.51859e-05 4.23372e-06 6.93502e-05 5.79399e-05 0.000484572 0.000763275 6.50464e-06 5.17158e-06 5.07055e-05 0.000144936 0.000262731 -6.28163e-05 0.000411082 0.000466223 0.000544092 0.000912237 0.000454888 0.000592262 2.92118e-05 0.000356519 0.00081774 1.69721e-05 6.71954e-05 -8.07394e-05 -0.000351742 -6.81394e-05 -0.000111311 -0.000168319 -0.000813069
internal_weight=0 18229 15163 3066 2984 82 52 15106 15068 3638 1111 709 402 403 375 323 63 260 207 2469 89 60 2380 1572 808 87 59 769 616 43
internal_count=530136 18229 15163 3066 2984 82 52 15106 15068 3638 1111 709 402 403 375 323 63 260 207 2469 89 60 2380 1572 808 87 59 769 616 43
is_linear=0
shrinkage=0.1


Tree=23
num_leaves=31
num_cat=0
split_feature=1 19 15 9 12 18 13 16 16 14 10 5 11 8 19 16 14 20 13 19 5 15 18 16 15 21 5 16 14 8
split_gain=0.000421193 0.00359208 0.000916951 0.00092444 0.00362372 0.00148763 0.00122444 0.00113984 0.00112255 0.00180201 0.0010369 0.00114004 0.000819826 0.000735751 0.000719137 0.000767592 0.00145428 0.00156237 0.000889763 0.000871486 0.000727958 0.000715002 0.00106002 0.000696743 0.0006877 0.000686013 0.00169016 0.00216798 0.00180895 0.00133824
threshold=0.05395500000000001 -0.0036579729583864902 0.057637514068903613 -0.0016755601009353913 -0.018254006687822785 0.056854241448740857 -0.01070986253400674 0.041923663063010659 -0.0059717248497805344 -0.021505115356509005 -0.010385429134024069 3.4442343341913729e-06 -0.0016094690433212653 0.0018678264281775105 0.012456796825084606 -0.044374146887641512 -0.046463240340385396 0.064681345551531058 -0.019607690539257924 0.051182574860047632 -1.8331108621822354e-06 -0.018062759995128238 0.085450004339892485 0.080339915246792085 -0.031662713512012212 0.092648587166859989 -2.3224694089113678e-06 0.10646732904031798 0.02719207577264349 0.0021547918898744416
decision_type=10 10 10 10 10 10 10 10 10 10 10 10 10 10 10 10 10 10 10 10 10 10 10 10 10 10 10 10 10 10
left_child=25 -2 3 6 5 -5 7 8 10 -10 11 -3 21 -4 -6 16 -16 20 -17 -20 24 22 -8 -21 -18 -1 27 28 -27 -29
right_child=1 2 13 4 14 -7 12 -9 9 -11 -12 -13 -14 -15 15 18 17 -19 19 23 -22 -23 -24 -25 -26 26 -28 29 -30 -31
leaf_value=-4.128658474023724e-07 0.001088555171844308 0.0011653610433985824 -0.00095463780120813428 -0.0002651987821221925 0.00052576334244804459 -0.0012468539826506076 -0.0008002007389082931 0.00090850660142124343 -0.00094413246399545597 0.00036590635260966211 3.7288105769011265e-05 0.00025378163153458018 0.00013847632551500154 -0.0001175504639117467 0.00046216105216775432 0.00051701364012127931 -0.00087952465444147857 -0.001229589062568266 0.00028105464348232432 -7.4847695961958267e-05 5.8992736740037799e-07 -2.9900856786546436e-05 -9.4981734118265842e-05 -0.00058693739681205321 -0.00015896668539006409 0.00010780899877770022 9.726646440898032e-06 1.1288839491766446e-05 0.00039192021522687552 -0.00051714669298726719
leaf_weight=516221 27 23 21 26 20 38 39 23 21 21 65 34 114 21 22 28 27 20 67 520 52 110 47 28 26 998 10978 136 289 74
leaf_count=516221 27 23 21 26 20 38 39 23 21 21 65 34 114 21 22 28 27 20 67 520 52 110 47 28 26 998 10978 136 289 74
internal_value=0 -5.40093e-05 -7.58418e-05 -6.17421e-05 -0.000123664 -0.000848057 4.71504e-05 0.000249243 0.000156786 -0.000289113 0.000310292 0.000621612 -7.47573e-05 -0.000536094 -6.64279e-05 -8.14201e-05 -0.000287577 -0.000419531 -3.42893e-05 -5.93892e-05 -0.000265235 -0.000198781 -0.00041479 -0.000101013 -0.000526043 1.47105e-07 2.33189e-05 0.000122996 0.000171607 -0.000174922
internal_weight=0 1440 1413 1371 874 64 497 187 164 42 122 57 310 42 810 790 147 125 643 615 105 196 86 548 53 528696 12475 1497 1287 210
internal_count=530136 1440 1413 1371 874 64 497 187 164 42 122 57 310 42 810 790 147 125 643 615 105 196 86 548 53 528696 12475 1497 1287 210
is_linear=0
shrinkage=0.1


Tree=24
num_leaves=31
num_cat=0
split_feature=13 0 11 16 2 2 15 5 16 19 14 21 23 5 10 12 12 22 16 11 16 2 15 12 12 11 0 4 24 24
split_gain=0.000376359 0.00212714 0.00169134 0.00132456 0.00142377 0.00108247 0.00277439 0.00106567 0.00123099 0.00102476 0.000959998 0.00280598 0.00269043 0.00262421 0.00378147 0.0017217 0.0013414 0.00140965 0.00150154 0.00152031 0.0013474 0.00103763 0.00100166 0.000986231 0.000918713 0.000892268 0.000955949 0.000884959 0.000871149 0.00176158
threshold=-0.03282196398509462 0.0010149999999999953 -0.01056072483164444 0.10646732904031798 0.0007549999999999919 0.019970000000000012 -0.063758572010334011 4.9161661070671278e-06 0.0073954177847600508 0.11347130120346639 -0.046463240340385396 0.026961938463311744 -0.013528754169732758 2.2526140131762614e-06 -0.0027746494972217812 0.0074542002763098312 0.0020105405546346771 -0.039101533328448061 -0.087056286844403849 0.0037977423261833514 -0.052560372711111407 0.0093250000000000017 -0.063758572010334011 -0.0047727299037424445 -0.011074295224397511 -0.0048107072630678696 0.0061000000000000021 0.0033672500000000009 5.1925880305336854e-05 0.00012643825311420279
decision_type=10 8 10 8 10 10 10 10 10 10 8 8 10 10 10 10 10 10 10 10 10 10 10 10 10 10 10 8 10 10
left_child=1 -1 3 4 9 24 -7 8 -8 -3 11 15 13 14 -13 25 17 20 -19 23 -14 -18 -15 -20 -6 -2 27 -27 -4 -30
right_child=10 2 28 -5 5 6 7 -9 -10 -11 -12 12 16 22 -16 -17 21 18 19 -21 -22 -23 -24 -25 -26 26 -28 -29 29 -31
leaf_value=-0.00070823538990225652 0.00036008587613139297 0.0009564903697173578 -6.5419014302841265e-05 -0.00055903860835921184 0.00013038633444719178 0.0011471822832292576 0.00071511238612319262 -0.0004946669727690856 -0.00025058172733141958 0.00011879361636997403 1.8375253207678789e-08 -0.00038268602545221534 -0.00030220249383339915 0.00045792234983916088 -0.0017826262415785875 -0.00033915661616973873 -1.0832824168334667e-05 0.00042635313085546457 3.3385829769743042e-05 -0.00086262504992191686 -0.0011445801657451926 0.00068184692333618719 -0.00051878548353367178 -0.00060214418298264432 -0.00039829384660281772 -7.9404344796785159e-05 -0.00011744239895961073 0.00067355018931069741 0.00042171139591296307 -7.0976944591608009e-05
leaf_weight=37 160 40 912 24 540 37 33 22 22 23 527136 43 55 21 35 76 95 42 115 32 29 28 21 31 35 27 128 37 123 177
leaf_count=37 160 40 912 24 540 37 33 22 22 23 527136 43 55 21 35 76 95 42 115 32 29 28 21 31 35 27 128 37 123 177
internal_value=0 4.30286e-05 5.70109e-05 0.000172284 0.000195624 0.000154016 0.000435517 9.35485e-05 0.000328835 0.000650665 -1.64989e-07 -9.93011e-05 -0.000249362 -0.000667713 -0.00101086 9.24828e-05 -0.000131793 -0.000244534 -0.000111474 -0.000238377 -0.000593023 0.00014685 -3.04316e-05 -0.000101555 9.82058e-05 0.000185678 4.03376e-05 0.000355897 -1.67942e-05 0.000131025
internal_weight=0 2025 1988 776 752 689 114 77 55 63 528111 975 547 120 78 428 427 304 220 178 84 123 42 146 575 352 192 64 1212 300
internal_count=530136 2025 1988 776 752 689 114 77 55 63 528111 975 547 120 78 428 427 304 220 178 84 123 42 146 575 352 192 64 1212 300
is_linear=0
shrinkage=0.1


Tree=25
num_leaves=31
num_cat=0
split_feature=20 16 15 15 22 5 5 24 10 4 9 5 21 5 13 24 5 13 15 16 4 10 12 5 23 11 22 8 12 12
split_gain=0.000398856 0.000979492 0.00116838 0.00105706 0.00134909 0.00141375 0.0040118 0.00260415 0.00197586 0.00110305 0.00101824 0.00101802 0.00278702 0.0017543 0.00215128 0.000984953 0.000903042 0.000860035 0.000967875 0.000734395 0.00100127 0.000947498 0.000788923 0.000778052 0.000706339 0.00113454 0.000657558 0.000640615 0.000980667 0.000701506
threshold=-0.12471147238192636 -0.041588136902242605 -0.049233191853458473 -0.063758572010334011 -0.056100090826417308 2.2526140131762614e-06 9.1286614781940696e-07 -1.0000000180025095e-35 -0.0082515789831573132 0.0090849999999999941 -0.0086166358445663432 -6.4159436438075179e-06 0.077562032220009028 -3.1904338169820943e-06 -0.014646835648970567 -0.00018460393839525577 -2.8544679250221897e-06 -0.025660100562088003 -0.01923893275281546 -0.015385315703961065 0.0091992499999999991 0.0048144222307456861 -0.006442749063315433 3.1101223590580246e-07 -0.0040056579343333834 0.00050008126390876939 -0.015543905025849734 0.0030162825416820698 0.025290105665125243 0.0040303602212604659
decision_type=8 10 10 10 10 10 10 10 10 8 10 10 10 10 10 10 10 10 10 10 10 10 10 10 10 10 10 10 10 10
left_child=1 3 -3 4 -1 6 11 10 -9 -10 -7 26 13 14 -13 -5 -17 18 -18 20 21 22 -4 -22 -15 -26 -6 28 -19 -29
right_child=-2 2 19 15 5 7 -8 8 9 -11 -12 12 -14 24 -16 16 17 27 -20 -21 23 -23 -24 -25 25 -27 -28 29 -30 -31
leaf_value=0.00059745410224422814 -1.7445933106823027e-07 -0.00065649375923385381 -0.00011893756831153136 0.00062289900493139969 0.00068849365365727304 0.00048645125061739239 -0.0014255424526155643 0.0014311167624090678 -0.00026178320214967241 0.0007345842281356454 -0.00032261225862644747 1.7822962593314478e-05 -0.00096580868530003912 -5.4980328983104319e-06 -0.0010264230719579193 0.00046828080879791954 0.0007696368063702004 -1.9912293968922645e-05 -7.6292805620358287e-05 8.6960745593231057e-05 0.00016248780804122172 0.00014620223548263313 -0.00059617606105369543 -0.0002125039776206256 0.00077820964688473607 -4.70984913033223e-05 2.8522614027476975e-05 0.00055074797105939628 0.00062430816236883405 4.0675677434722148e-05
leaf_weight=35 528000 30 58 46 26 20 23 23 20 25 70 47 36 126 34 77 38 431 21 349 152 40 86 87 36 31 36 52 25 56
leaf_count=35 528000 30 58 46 26 20 23 23 20 25 70 47 36 126 34 77 38 431 21 349 152 40 86 87 36 31 36 52 25 56
internal_value=0 4.31252e-05 -4.42103e-05 9.56312e-05 -4.63472e-06 -4.27416e-05 -0.000143866 0.000210068 0.000677127 0.000291754 -0.00014282 -6.46221e-05 -0.000138603 -2.99196e-05 -0.000420503 0.000174661 0.000145206 0.000105275 0.000468543 -2.04169e-05 -0.00010901 -0.000284356 -0.000403955 2.59845e-05 0.000134004 0.000396351 0.000305285 6.72735e-05 1.54068e-05 0.000286266
internal_weight=0 2136 802 1334 588 553 395 158 68 45 90 372 310 274 81 746 700 623 59 772 423 184 144 239 193 67 62 564 456 108
internal_count=530136 2136 802 1334 588 553 395 158 68 45 90 372 310 274 81 746 700 623 59 772 423 184 144 239 193 67 62 564 456 108
is_linear=0
shrinkage=0.1


Tree=26
num_leaves=31
num_cat=0
split_feature=5 14 0 11 16 10 14 21 15 1 2 14 9 18 24 1 15 2 21 12 0 13 12 15 15 1 13 13 16 1
split_gain=0.000375113 0.00140092 0.00178513 0.00167163 0.0016224 0.00151721 0.00209477 0.00141513 0.00253868 0.00201542 0.00105175 0.00154133 0.00100947 0.000974744 0.00222298 0.00153346 0.00118055 0.00117445 0.00104672 0.000874558 0.00111397 0.000863611 0.00250555 0.000806226 0.00104313 0.000898633 0.000758573 0.000748666 0.0006602 0.000644809
threshold=6.5921764871813024e-06 0.049173497267759443 0.074275000000000022 -0.0046296885142882429 0.080339915246792085 -0.0037461464164547094 -0.036504833301916388 0.092648587166859989 0.074026476598646487 0.0030900000000000029 0.00049500000000000943 -0.021505115356509005 0.0070494024124730945 -0.053884669623150132 -6.0618919220323246e-05 0.0060150000000000073 0.048449959905347513 0.0011449999999999935 0.016040289278302037 0.00025686031127181158 0.023535000000000018 -0.025660100562088003 -0.002876083524530892 -0.063758572010334011 -0.049233191853458473 0.026005000000000032 -0.017970303216276236 0.023500971220512982 0.041923663063010659 0.0067599999999999891
decision_type=10 8 10 10 10 10 10 10 10 10 10 10 10 10 10 10 10 10 10 10 10 10 10 10 10 10 10 10 10 10
left_child=-1 2 10 4 -3 21 -7 9 -9 -5 11 -2 -11 14 15 19 17 28 -16 20 -12 -4 -23 -19 -25 -26 -8 -27 -15 -20
right_child=1 3 5 7 -6 6 26 8 -10 12 13 -13 -14 16 18 -17 -18 23 29 -21 -22 22 -24 24 25 27 -28 -29 -30 -31
leaf_value=1.6831015471552331e-07 0.0010846412155925383 -0.00012768802144342946 0.00046543526846757493 0.00034691787697022048 -0.0012904423860683372 -0.001239449097920442 0.00024137865776927876 0.00089236421462696711 -0.00042125747113459512 -0.00036295793009177195 -0.0002513042951832176 9.9240474069997551e-05 -0.0011060846429318189 -0.00015486172132659704 0.00077484943137345159 0.00019699954205531288 0.00018160932448962639 0.00043409001273175818 -6.4674839137424312e-05 3.8851879695097784e-05 -0.0011862034745438277 -0.0010179242881436256 0.00054601009906036786 -0.00055754962563379343 -0.00010908757236494521 0.00020114513422632299 -0.00048154878682095284 -0.00030277964151797024 -0.00085066812500978514 0.00032901939913870879
leaf_weight=528022 22 21 28 33 28 32 21 31 28 68 25 57 25 25 41 55 198 32 57 21 26 21 20 43 703 187 47 35 30 154
leaf_count=528022 22 21 28 33 28 32 21 31 28 68 25 57 25 25 41 55 198 32 57 21 26 21 20 43 703 187 47 35 30 154
internal_value=0 -4.20398e-05 -1.332e-05 -0.000272781 -0.000792119 -0.000323374 -0.000572262 -0.000135226 0.000268951 -0.000324484 1.73049e-05 0.000373656 -0.000562723 5.5092e-08 0.000140576 -0.000200575 -4.24488e-05 -8.44996e-05 0.000312505 -0.000504278 -0.00072792 3.7333e-05 -0.000255029 -5.97555e-05 -7.60809e-05 -5.36991e-05 -0.000258292 0.000121698 -0.000534392 0.000222666
internal_weight=0 2114 1880 234 49 169 100 185 59 126 1711 79 93 1632 379 127 1253 1055 252 72 51 69 41 1000 968 925 68 222 55 211
internal_count=530136 2114 1880 234 49 169 100 185 59 126 1711 79 93 1632 379 127 1253 1055 252 72 51 69 41 1000 968 925 68 222 55 211
is_linear=0
shrinkage=0.1


Tree=27
num_leaves=31
num_cat=0
split_feature=11 24 4 14 21 5 23 18 18 23 13 15 5 18 4 24 5 13 18 13 19 3 4 12 4 5 14 19 12 5
split_gain=0.000364746 0.00163052 0.00176514 0.00164031 0.00226501 0.00159003 0.00363419 0.00316763 0.00330245 0.00250437 0.0019902 0.0017597 0.00151017 0.00154825 0.00150208 0.00144658 0.00144133 0.00255242 0.000897282 0.00235309 0.0012132 0.00125244 0.00113233 0.00110071 0.000896067 0.00138365 0.00105051 0.000960574 0.00104775 0.000829186
threshold=0.0084422719438230782 -0.00016830781063820186 0.002695250000000001 0.033954920313324484 0.0027251026857217924 -3.7602521274639694e-06 0.050909549785662984 0.066066616619841936 0.11904191058098125 0.12922692527286231 0.02741275586243919 0.048449959905347513 -6.4159436438075179e-06 0.01220837346723558 0.019035750000000008 6.0350118096130785e-05 1.0626251409374949e-06 0.035371671406769341 -0.083464535104374779 0.012888754123806192 -0.079551051576779538 0.048815000000000004 0.016214000000000006 0.0055821288931819932 0.019035750000000008 6.5921764871813024e-06 0.039320407145688192 -0.047682314020645482 0.025290105665125243 3.6470152148210833e-07
decision_type=8 10 8 10 10 10 10 10 10 10 10 10 10 8 10 10 10 10 10 10 10 10 10 10 10 10 10 10 10 10
left_child=-1 2 16 -3 -5 6 7 -6 14 15 -11 -12 13 -4 -9 24 17 -2 19 -14 -20 -22 -21 -23 25 26 29 -26 -29 -7
right_child=1 3 12 4 5 9 -8 8 -10 10 11 -13 18 -15 -16 -17 -18 -19 20 22 21 23 -24 -25 27 -27 -28 28 -30 -31
leaf_value=-3.2871418048282663e-07 0.00030910075114055268 2.7865289521596186e-05 0.00014265952486312017 -0.001147913369895832 -0.00013268174607219407 0.00038668547756969934 -0.00041859017552009649 0.0018809349818620831 6.5882174697305481e-05 -0.00026271434271129201 0.0014101662994584158 0.00032556710950582506 -1.0996393254820512e-05 0.0012182885254530804 0.00083139890515061181 -0.00033918373870945478 -3.586292966014468e-05 0.0013501407295864608 -0.00055355459874074258 0.00031880812241849658 0.00010105424430878266 0.00034590594777210546 0.0012030299341616532 -0.00037820088144294584 0.00033546062821353029 0.00072914033801720036 -0.00013979082453054273 -0.00021257534353624687 -0.0007850059953687544 -9.8355789472522677e-05
leaf_weight=521939 72 5639 32 20 56 80 70 25 35 37 21 52 110 23 30 335 43 35 37 28 552 26 30 109 22 23 431 117 44 63
leaf_count=521939 72 5639 32 20 56 80 70 25 35 37 21 52 110 23 30 335 43 35 37 28 552 26 30 109 22 23 431 117 44 63
internal_value=0 2.09307e-05 0.000134395 3.3996e-06 -9.10302e-05 -7.63615e-05 0.000173795 0.000457815 0.000825236 -0.000120471 0.00033475 0.000637575 8.3911e-05 0.000592468 0.00130846 -0.00016538 0.00045312 0.000649628 5.25538e-05 0.000260761 4.24044e-06 3.42818e-05 0.000776164 -0.000238743 -9.07342e-05 -3.13923e-05 -6.18666e-05 -0.000284325 -0.000369016 0.000172996
internal_weight=0 8197 1097 7100 1461 1441 216 146 90 1225 110 73 947 55 55 1115 150 107 892 168 724 687 58 135 780 597 574 183 161 143
internal_count=530136 8197 1097 7100 1461 1441 216 146 90 1225 110 73 947 55 55 1115 150 107 892 168 724 687 58 135 780 597 574 183 161 143
is_linear=0
shrinkage=0.1


Tree=28
num_leaves=31
num_cat=0
split_feature=15 21 13 1 21 18 18 21 16 0 1 21 14 12 11 14 2 5 14 5 2 11 14 24 18 14 13 24 11 20
split_gain=0.000367932 0.00287723 0.00167154 0.00235656 0.00227672 0.00231034 0.005002 0.00276052 0.00214197 0.00198217 0.00185767 0.00219076 0.00213998 0.00176311 0.00173347 0.00146198 0.00505652 0.0042805 0.00143979 0.002063 0.00260192 0.00175539 0.00173137 0.00151791 0.00151669 0.00133926 0.00202745 0.00268285 0.00127978 0.00195959
threshold=0.048449959905347513 0.00086217685788447806 0.013558089923253804 0.0044599999999999926 0.014303959131545365 0.17680011336800397 0.14897248005285904 0.040342438942643895 0.018851018312140758 0.0074950000000000164 0.05395500000000001 0.092648587166859989 -0.0063052042187420323 0.013479613677362503 -0.0074860972503463788 0.049173497267759443 0.001094999999999992 -1.1926585104447288e-06 0.01539793736944506 -6.4159436438075179e-06 0.0084749999999999982 0.014422640877021721 -0.0033259529440975428 0.00010503694083174865 0.085450004339892485 0.030041980482594103 -0.0039795385527467966 -1.0000000180025095e-35 0.0041985706986065194 0.17343013964534518
decision_type=8 8 10 10 10 10 10 10 10 10 10 10 10 10 10 10 10 10 10 8 10 10 10 10 10 10 10 10 10 10
left_child=-1 -2 10 4 8 6 7 14 -4 -5 11 15 -13 25 -6 -3 17 -17 22 20 21 -20 -11 -24 -22 -14 27 -27 29 -21
right_child=1 2 3 9 5 -7 -8 -9 -10 18 -12 12 13 -15 -16 16 -18 -19 19 28 24 -23 23 -25 -26 26 -28 -29 -30 -31
leaf_value=-2.8793331745008866e-07 -0.0011444479255476921 7.3889488556502298e-05 0.00091225946322083485 -0.00066044390625959702 0.00061195018412471547 -0.00027127145468788832 0.0017295059578914551 0.0011290549694014521 -0.00014295786691018438 -0.00051818792779578457 -0.00067421120890003299 -0.00033229234827012989 0.00026872957146385009 -2.3923475082289983e-05 9.7060619380427124e-05 -0.0020946286568094209 0.00010391584461196267 -0.00011993314976626565 0.00010717988106594219 -0.00017725590125093369 3.4495700383558869e-05 -0.0008035111594945194 0.00061313001962324577 -0.0001707017984673647 0.0011055889579718217 0.00033141481137136 0.00044515708136637166 0.0018478527960334242 -6.9490641060603527e-05 -0.00064349526013367199
leaf_weight=523878 21 2230 20 61 71 115 21 29 504 26 32 50 170 94 827 23 118 21 138 462 20 25 84 35 39 20 118 28 744 112
leaf_count=523878 21 2230 20 61 71 115 21 29 504 26 32 50 170 94 827 23 118 21 138 462 20 25 84 35 39 20 118 28 744 112
internal_value=0 2.41039e-05 2.80384e-05 -2.02842e-05 6.79131e-05 0.000152007 0.000203354 0.000168781 -0.000102682 -0.00010045 8.34997e-05 9.19422e-05 0.000286911 0.000358911 0.00013777 5.2818e-05 -0.000237241 -0.00115216 -8.01771e-05 -0.000108541 0.000173473 -3.24967e-05 0.000221072 0.000382591 0.000742506 0.000466014 0.000668052 0.001216 -0.000156043 -0.000268229
internal_weight=0 6258 6237 3333 1587 1063 948 927 524 1746 2904 2872 480 430 898 2392 162 44 1685 1540 222 163 145 119 59 336 166 48 1318 574
internal_count=530136 6258 6237 3333 1587 1063 948 927 524 1746 2904 2872 480 430 898 2392 162 44 1685 1540 222 163 145 119 59 336 166 48 1318 574
is_linear=0
shrinkage=0.1


Tree=29
num_leaves=31
num_cat=0
split_feature=1 17 16 21 15 5 18 8 13 12 5 10 5 12 12 16 15 15 18 14 12 18 11 19 16 12 13 21 5 16
split_gain=0.000331601 0.00336746 0.000692265 0.00160723 0.00093643 0.00110164 0.0010151 0.00100408 0.00139184 0.00136744 0.00351441 0.00170057 0.000959603 0.00105344 0.000924174 0.000916521 0.000863069 0.00158308 0.00157109 0.000740226 0.000622831 0.000565565 0.00103505 0.000544563 0.00106216 0.000708664 0.000542813 0.000532428 0.00135795 0.00163766
threshold=0.05395500000000001 -0.0021905654859860064 0.080339915246792085 0.1688547199935784 0.011241432197873548 6.9818316629838363e-07 0.14897248005285904 -0.0061180248948133889 -0.03282196398509462 -0.023209845577169371 4.9161661070671278e-06 -0.0029508563976743947 2.7084909202371397e-06 0.025290105665125243 -0.013968183041272007 -0.039242023124851137 -0.063758572010334011 -0.034331441218086282 0.042212460770241329 0.004336481020661199 0.002370192783837433 0.10450401964304303 -0.0057704904124937775 0.025149811717383067 -0.044374146887641512 0.0064899444495534206 -0.022056959508495007 0.092648587166859989 -2.3224694089113678e-06 0.10646732904031798
decision_type=10 10 10 10 10 10 10 10 10 10 10 10 10 10 10 10 10 10 10 10 10 10 10 10 10 10 10 10 10 10
left_child=27 -2 4 -4 6 21 7 8 -3 10 -9 -12 13 16 -10 -7 18 20 -11 23 -18 22 -6 -14 25 -25 -8 -1 29 -29
right_child=1 2 3 -5 5 15 26 9 14 12 11 -13 19 -15 -16 -17 17 -19 -20 -21 -22 -23 -24 24 -26 -27 -28 28 -30 -31
leaf_value=-3.6279513098102833e-07 0.0012406209972687066 0.00081900251780411815 -0.0011044737655625102 -6.5006665617522018e-05 0.00028230807452928275 -0.00018757948941870215 -0.00018079098378869028 0.00027357278468703191 -0.0005327556896108118 -0.00016092813942426195 -0.00049294778596959082 -0.0017970079649239782 0.00045382173099954218 -0.00079077896155902881 0.00037382805673152452 0.00046971038373709291 -0.0003732369479015082 -7.3332036076633334e-05 0.00098329272295814016 0.00063836850132793191 -0.0010061290380848655 5.9982232251686269e-05 -0.00059876341452763887 -0.00081837427987129961 0.00016546231651844804 -4.4657594116870317e-06 -0.00085570377817090887 0.00015213933117321751 8.3609089028182171e-06 -0.00014903873114062232
leaf_weight=516221 20 29 21 51 20 27 22 31 22 30 20 20 28 23 23 99 48 495 20 25 23 145 40 23 89 20 26 1287 10978 210
leaf_count=516221 20 29 21 51 20 27 22 31 22 30 20 20 28 23 23 99 48 495 20 25 23 145 40 23 89 20 26 1287 10978 210
internal_value=0 -4.79221e-05 -6.60706e-05 -0.000368185 -4.9934e-05 9.61623e-05 -9.74835e-05 -7.52477e-05 0.000278763 -0.000104518 -0.000525611 -0.00114498 -6.82344e-05 -0.0001263 -6.93907e-05 0.000328863 -0.00010149 -0.000136671 0.00029676 0.000132327 -0.000578258 -4.68632e-05 -0.000305073 5.32577e-05 -3.17104e-05 -0.000439812 -0.000546369 1.30526e-07 2.05444e-05 0.00010989
internal_weight=0 1440 1420 72 1348 331 1017 969 74 895 71 40 824 639 45 126 616 566 50 185 71 205 60 160 132 43 48 528696 12475 1497
internal_count=530136 1440 1420 72 1348 331 1017 969 74 895 71 40 824 639 45 126 616 566 50 185 71 205 60 160 132 43 48 528696 12475 1497
is_linear=0
shrinkage=0.1


Tree=30
num_leaves=31
num_cat=0
split_feature=17 16 15 6 15 6 11 6 13 14 21 11 12 11 6 6 23 14 14 3 24 12 8 24 12 15 24 2 11 10
split_gain=0.00032812 0.000748079 0.00106702 0.00098996 0.000684552 0.000606735 0.000770648 0.00111192 0.00104017 0.000918098 0.00313683 0.00331816 0.00161882 0.00114605 0.000899287 0.00132616 0.000904556 0.000856999 0.000800676 0.00076387 0.000713357 0.000930492 0.000647231 0.000612369 0.000568252 0.000801931 0.00055719 0.000557174 0.000492104 0.00047881
threshold=-0.12475944229874124 -0.039242023124851137 -0.0043430076200371972 1.7053392659960508e-06 -0.013950372797393694 6.5921764871813024e-06 -0.013440185028310568 2.4523544687870143e-06 -0.025660100562088003 -0.046463240340385396 0.077562032220009028 -0.00233567860513556 0.025290105665125243 -0.00043738853469554856 -3.7602521274639694e-06 -2.5522061542281572e-06 -0.030024463095972561 0.021596415507730619 -0.011140168411325644 0.0070249999999999905 -0.0001384355543080362 -0.023209845577169371 0.0065459241351782946 -0.0001384355543080362 -0.013968183041272007 -0.020647672790061074 -1.0000000180025095e-35 0.018614999999999996 0.0025183555138721396 0.011139238656404428
decision_type=8 10 10 10 10 10 10 10 10 10 10 10 10 10 10 10 10 10 10 10 10 10 10 10 10 10 10 10 10 10
left_child=1 5 3 -3 -5 6 7 8 20 10 13 -12 14 19 16 27 -11 -14 24 -8 -1 -22 26 -20 25 -17 -15 -16 -26 -4
right_child=-2 2 29 4 -6 -7 9 -9 -10 12 11 -13 17 22 15 18 -18 -19 23 -21 21 -23 -24 -25 28 -27 -28 -29 -30 -31
leaf_value=-7.6767732389271265e-05 -1.5801460995573471e-07 -8.0842270148183835e-05 8.7472549180030152e-05 -0.0009724511233137244 -0.00016409726020356175 -0.00018985390920356801 -2.8538859462262027e-05 0.00085642261973892643 -0.00026544664500318971 0.00011759759217966348 -0.00176114946121483 -0.00012220898604330918 0.00025695645069787043 0.00011700213451604213 0.0008149467187144587 0.00017015924221714556 -0.00060252915643866658 0.00094937259802298452 0.00030924441905844275 0.00055597427003164536 0.00086683527445750993 4.5595297441733156e-05 -0.00062181187237332451 -6.895832324514277e-05 7.1648326560883619e-06 0.00083472180413082244 -0.00044836858097646067 0.00015664788947105992 0.00031574016954436955 0.00056752296108954952
leaf_weight=25 528006 471 215 22 20 77 36 30 37 33 21 30 39 72 36 46 37 33 49 59 37 22 22 339 146 30 23 20 80 23
leaf_count=25 528006 471 215 22 20 77 36 30 37 33 21 30 39 72 36 46 37 33 49 59 37 22 22 339 146 30 23 20 80 23
internal_value=0 3.91699e-05 -4.11358e-05 -0.000122325 -0.000587521 8.29042e-05 9.9035e-05 0.000311443 0.000176325 7.11691e-05 -9.29411e-05 -0.000797067 0.000119774 7.64476e-05 7.96673e-05 0.000111825 -0.000263041 0.000574314 7.38411e-05 0.000334475 0.000370914 0.00056061 -0.000133061 -2.11956e-05 0.000195941 0.000432487 -1.98771e-05 0.00057984 0.000116395 0.000133864
internal_weight=0 2130 751 513 42 1379 1302 151 121 1151 263 51 888 212 816 746 70 72 690 95 84 59 117 388 302 76 95 56 226 238
internal_count=530136 2130 751 513 42 1379 1302 151 121 1151 263 51 888 212 816 746 70 72 690 95 84 59 117 388 302 76 95 56 226 238
is_linear=0
shrinkage=0.1


Tree=31
num_leaves=31
num_cat=0
split_feature=23 20 15 14 11 19 0 15 23 13 17 20 16 16 5 5 20 20 15 15 19 19 16 0 16 5 16 5 9 15
split_gain=0.000291965 0.000848698 0.000707367 0.000700083 0.00123692 0.000920071 0.00183522 0.000669604 0.000525727 0.00092912 0.000668947 0.000557799 0.000500815 0.000509045 0.000865933 0.000795592 0.000708914 0.000485172 0.000472801 0.000467299 0.00044144 0.000791517 0.000700934 0.000818482 0.000920987 0.000736513 0.000735291 0.000853563 0.000783327 0.000794695
threshold=-0.075103831262763251 -0.0031758656313778939 -0.063758572010334011 0.02719207577264349 -0.0081750255668571175 -0.087514577165189886 0.054199999999999998 0.025026886112596406 -0.086433012549021346 -0.019607690539257924 -0.033413366450108943 -0.014652407365947971 0.10646732904031798 0.060595461968476878 -3.1904338169820943e-06 6.5921764871813024e-06 -0.048529023424644595 -0.085696013908858934 0.035097754804626076 -0.0032213447839618543 -0.054112717016670579 -0.046194779830773962 0.0015102270551700105 0.050240000000000028 -0.052560372711111407 -2.5522061542281572e-06 -0.067300468943724143 6.364108230693803e-07 0.0070494024124730945 -0.027974854941756774
decision_type=8 10 10 10 10 10 10 10 8 10 10 10 10 10 10 10 10 10 10 10 10 10 10 10 10 10 10 10 10 10
left_child=1 2 17 8 -5 6 19 -8 10 -10 20 -11 13 15 -15 18 -16 -1 -7 -6 22 -22 23 26 25 -25 27 -4 29 -28
right_child=-2 -3 3 4 5 12 7 -9 9 11 -12 -13 -14 14 16 -17 -18 -19 -20 -21 21 -23 -24 24 -26 -27 28 -29 -30 -31
leaf_value=0.00069609707211734184 -2.7507719134419255e-07 -0.000445203269191552 1.4448869712526045e-05 0.00066188475272307805 -0.00029005366750061513 8.7380633821190702e-05 0.00044564278390680557 0.0012639361829496921 0.00056021664250043349 5.2652276345791665e-05 -0.00039914847323995091 -0.00017750662437384228 -0.00038261446241063607 -0.00036278302024584264 0.00062339188673871365 -0.00065170821173524021 -1.4411479302604373e-06 7.9109951388090858e-05 -0.00020658987513898311 0.00017057525942249955 0.00039957037605644377 1.6042816555945964e-05 -6.1408785864736261e-05 0.0001258761720964685 0.00017586375948766271 -0.00071259587050256175 -0.00021396786816678273 0.00063341131160111249 0.00046802643083802034 -8.1143585882667839e-06
